{"b": {"0": [-0.016937462612986565, -0.022205699235200882, -0.01928364671766758, -0.01926024816930294, 0.008756127208471298, 0.017552997916936874, -0.01914813183248043, -0.003583455691114068, 0.013447815552353859, -0.01559179276227951, 0.02705106884241104, -0.01473503839224577, -0.001726162270642817, 0.010879123583436012, -0.028598589822649956, 0.004751968197524548, 0.003625325858592987, -0.01299038901925087, 0.006078406702727079, 0.013254553079605103, -0.006282457150518894, -0.008085498586297035, -0.028849834576249123, -0.020899491384625435, -0.019021645188331604, 0.0202117171138525, 0.014067974872887135, 0.011840938590466976, -0.023908276110887527, 0.003504742169752717, 0.031298547983169556, 0.014168591238558292, 0.04011401906609535, 0.03725532069802284, 0.01506760623306036, -0.013479388318955898, -0.007950124330818653, 0.023498844355344772, 0.020167922601103783, 0.010647554881870747, 0.003011473687365651, -0.013119416311383247, -0.002809196477755904, -0.017293443903326988, 0.0004081129445694387, 0.016849374398589134, -0.011164557188749313, -0.0040250360034406185, 0.0136939762160182, 0.021378526464104652, -0.0005515182274393737, 0.009756271727383137, 0.012185823172330856, 0.021074768155813217, 0.01441944669932127, -0.0015523883048444986, -0.008086279965937138, -0.021171344444155693, -0.02012224867939949, -0.016862541437149048, 0.0019966710824519396, -0.010907042771577835, 0.026129474863409996, -0.01476924866437912, 0.007502350490540266, 0.0053521436639130116, 0.02418679930269718, 0.01747404970228672, -0.008002336136996746, -0.022945329546928406, -0.016453132033348083, 0.0071023330092430115, 0.0013372959801927209, -0.016826007515192032, 0.0216507725417614, -0.01768369786441326, 0.005914038512855768, 0.00613118801265955, -0.0031668893061578274, -0.014749669469892979, -0.020489726215600967, -0.014304141514003277, 0.02863268554210663, 0.021387187764048576, -0.0020000371150672436, -0.0014899434754624963, -0.002739772666245699, -0.018178414553403854, 0.004470338579267263, 0.004214124288409948, -0.012598075903952122, -0.001891251071356237, 0.004044485744088888, -0.0010280737187713385, 0.01525873877108097, -0.03028300032019615, -0.021138915792107582, 0.00968383252620697, -0.004994811490178108, -0.011137109249830246, -0.009966187179088593, 0.0031883129850029945, -0.013600260019302368, -0.005953385028988123, 0.007865146733820438, 0.007674671709537506, -6.474543624790385e-06, 0.009159810841083527, -0.016139259561896324, 0.014115903526544571, -0.0165469478815794, -0.023661388084292412, 0.016703207045793533, 0.003369138343259692, -0.02586989849805832, 0.017576057463884354, 0.007112638559192419, 0.0036680055782198906, 0.013364693149924278, -0.009006890468299389], "1": [-0.03832222893834114, 0.01966489665210247, 0.0025971163995563984, 0.0008403540123254061, 0.06424131989479065, 0.003509668866172433, -0.0002986053004860878, -0.015762578696012497, 0.004318758845329285, 0.009002827107906342, -0.018837271258234978, 0.00038625995512120426, 2.5511104468023404e-05, -0.002031572861596942, 0.018777357414364815, -2.7792786568170413e-05, 0.010403920896351337, 0.0018514870898798108, 0.006838665809482336, 0.00953094195574522, 0.017914194613695145, 0.0011870923917740583, 0.028964538127183914, 0.0021092656534165144, -0.01637403853237629, -0.036689575761556625, 0.0022933315485715866, -0.004115836229175329, 0.0007028389372862875, 0.055487338453531265, -0.01265021599829197, 0.00033590567181818187, -4.570941200654488e-06, 0.00016688612231519073, -0.018150020390748978, 0.030654599890112877, 0.002179201226681471, 0.0023799347691237926, 0.0007778408471494913, -0.0037615466862916946, 0.007508253213018179, -0.026092739775776863, -0.022672004997730255, -0.014686175622045994, -9.44390194490552e-05, -0.01196636538952589, 0.042978573590517044, 0.0009146266966126859, 0.010455169714987278, -0.02282657101750374, -0.016556428745388985, -0.008326541632413864, 0.0170588418841362, -0.01244672667235136, -0.0041369288228452206, 0.01931583508849144, -0.0013429480604827404, 0.01209502387791872, 0.00030112144304439425, 0.016926025971770287], "2": [0.005019606556743383, -0.009234399534761906, -0.007143849972635508, -0.013118873350322247, 0.013782108202576637, 0.0073471879586577415, 0.023811090737581253, -0.009514007717370987, 0.010030124336481094, 0.0029509379528462887, -0.002428191713988781, -0.014082307927310467, -0.007812062744051218, -0.01966998726129532, -0.00872581172734499, -0.011246555484831333, -0.035555094480514526, -0.0010370078962296247, 0.004792044870555401, -0.002667168155312538, 0.007203123066574335, 0.0012389469193294644, -0.0022150103468447924, -0.000285325717413798, -0.0050079235807061195, -0.0014696263242512941, -0.01392649207264185, 0.007039584219455719, -0.009150462225079536, -0.000978888594545424, 0.01005365327000618, -0.0166879054158926], "3": [-0.009370454587042332, -0.003318381030112505, -0.007924300618469715, -0.009117231704294682, -0.005410451907664537, 0.006860482506453991, -0.0026378079783171415, -0.006833960302174091, 0.005082674790173769, 0.0031380888540297747], "4": [0.005396110471338034, 0.0029672246892005205], "5": [0.003923982381820679, -0.024663548916578293, 0.007464320864528418, -0.01037559937685728, 0.02475603297352791, 0.008172393776476383, 0.015739502385258675, -0.010213137604296207, 0.002809039084240794, 0.003446152899414301], "6": [-0.026455247774720192, 0.03588530421257019, -0.026297369971871376, -0.0005685386131517589, 0.016488591209053993, -0.03094347193837166, 0.02892705425620079, -0.006399914156645536, -0.022486934438347816, -0.038139890879392624, -0.007958568632602692, 0.0013808117946609855, -0.013666704297065735, 0.007303537800908089, -0.0037289049942046404, 0.031303368508815765, -0.023581411689519882, 0.0075552333146333694, -0.005612119100987911, 0.024128470569849014, 0.034871332347393036, -0.00934474729001522, -0.006780292838811874, -0.015804262831807137, -0.025204548612236977, 0.014713041484355927, -0.012603958137333393, -0.013682297430932522, 0.020240016281604767, -0.015276999212801456, -0.0077757625840604305, 0.0009050058433786035], "7": [-0.021274583414196968, -0.029946284368634224, -0.0018522503087297082, 0.02477433532476425, -0.009740155190229416, -0.0426301546394825, -0.01409897394478321, -0.011532970704138279, 0.05481060594320297, -0.0002839405497070402, -0.06281916797161102, -0.009498490951955318, -0.0057458421215415, 0.011127601377665997, -0.015716321766376495, 0.008912782184779644, -0.008945463225245476, 0.01894287019968033, 0.025646070018410683, -0.019899630919098854, -0.02334575727581978, 0.014708060771226883, 0.013584249652922153, -0.04037744924426079, -0.019424473866820335, 0.008843466639518738, 0.018554924055933952, 0.027251534163951874, 0.016820037737488747, -0.018964681774377823, 0.021295394748449326, -0.023482492193579674, 0.04499255120754242, -0.010337864980101585, -0.04632487893104553, 0.005055707413703203, -0.000412069377489388, 0.005826945416629314, -0.0021049436181783676, 0.03440772742033005, -0.0133967325091362, 0.012897038832306862, -0.011199957691133022, 0.007446463219821453, 0.010474379174411297, -0.01584346778690815, 0.0017317823367193341, 0.01579398103058338, -0.05910474807024002, 0.015727421268820763, -0.03658853471279144, 0.00486775441095233, -0.015955684706568718, 0.003762213047593832, -0.004196556285023689, -0.003048387821763754, -0.006690396461635828, 0.01406178530305624, -0.00638389028608799, -0.0290085282176733], "8": [0.02026023343205452, -0.007285436149686575, -0.004658103454858065, -0.040723808109760284, 0.037723608314991, -0.023843830451369286, 0.012526238337159157, 0.02260708063840866, -0.01592181995511055, 0.024272749200463295, -0.021725907921791077, -0.049812037497758865, -0.000800629029981792, -0.03256543353199959, 0.01238952949643135, -0.04136909544467926, -0.016382567584514618, -0.024797873571515083, -0.020615076646208763, -0.004376458935439587, 0.0033010197803378105, -0.05501234903931618, -0.017686227336525917, -0.012956224381923676, 0.022246913984417915, -0.02925628051161766, -0.017154904082417488, -0.013253938406705856, 0.0474015437066555, 0.03258032724261284, -0.0075457957573235035, 0.0252461526542902, 0.04191235452890396, -0.029526416212320328, 0.01904326304793358, 0.018100053071975708, 0.041162483394145966, 0.018507136031985283, 0.013740602880716324, 0.0022715784143656492, -0.009618236683309078, 0.03229700028896332, -0.01590467244386673, -0.05287599936127663, -0.050271060317754745, 0.030313029885292053, 0.037854231894016266, 0.013693620450794697, -0.016129527240991592, -0.034682497382164, -0.009285448119044304, -0.0024855169467628, 0.010434664785861969, -0.009489110670983791, 0.034554142504930496, 0.035130493342876434, 0.03427531197667122, -0.02862345613539219, -0.023843858391046524, -0.009857509285211563, -0.028382329270243645, -0.010278570465743542, -0.036340612918138504, 0.06747882813215256, 0.04081805422902107, 0.00950792245566845, 0.0007123719551600516, -0.01294915471225977, 0.01847740076482296, -0.0407855361700058, -0.030164094641804695, -0.012647651135921478, -0.01588539034128189, -0.044832948595285416, -0.020783038809895515, 0.0008510515326634049, 0.04694646596908569, 0.01317362580448389, -0.026974860578775406, 0.029933588579297066, 0.01819361001253128, -0.04073474556207657, 0.013473262079060078, -0.04655429720878601, -0.0344705730676651, 0.0008212038083001971, -0.005237273406237364, 0.03048640862107277, -0.026838937774300575, -0.022250279784202576, -0.024262407794594765, -0.008788900449872017, -0.01815495453774929, -0.015870772302150726, 0.023152606561779976, 0.019072607159614563, 0.017074601724743843, -0.0020696839783340693, -0.02546759881079197, -0.008810782805085182, -0.0012618679320439696, -0.03402763232588768, -0.021235238760709763, -0.015366366133093834, 0.046321265399456024, 0.01183608639985323, -0.0020402763038873672, 0.010180930607020855, 0.001001486787572503, 0.006025099661201239, 0.01356787234544754, 0.059299081563949585, -0.028490593656897545, 0.0016452536219730973, 0.02326802909374237, -0.008300415240228176, -0.033453118056058884, 0.04088377207517624, 0.007400807458907366, 0.0737910196185112], "9": [-0.22941313683986664, -0.010207644663751125, 0.06906993687152863, -0.012951000593602657, 0.04650438204407692, 0.24818046391010284, 0.0020374306477606297, -0.10227156430482864, -0.005524356849491596, -0.054175280034542084, 0.03641227260231972, 0.029004700481891632, 0.13825975358486176, -0.01913975179195404, 0.014797243289649487, 0.008798659779131413, 0.19277924299240112, -0.06925000250339508, -0.1819194108247757, -0.02381308376789093, -0.02234422042965889, -0.03798731043934822, 0.06317873299121857, 0.031506869941949844, 0.028893934562802315, -0.0013388526858761907, -0.14281095564365387, 0.03351416811347008, 0.036582596600055695, 0.04950094595551491, 0.03476962074637413, 0.00016515278548467904, -0.03572353720664978, -0.012287371791899204, -0.01715460978448391, 0.12717409431934357, 0.029604198411107063, 0.12620393931865692, -0.04595475643873215, 0.012045769952237606, -0.050829123705625534, -0.10329204052686691, -0.02990044467151165, -0.020104583352804184, -0.0015523413894698024, -0.023300351575016975, 0.02075957879424095, 0.043465506285429, -0.08628437668085098, -0.022898804396390915]}, "deCodes": [10, 32, 60, 120, 50], "enCodes": [50, 120, 60, 32, 10], "w": {"0": [[-0.8216079473495483, 1.4595189094543457, 0.037997450679540634, -2.457961082458496, 0.09648553282022476, 0.600782573223114, 0.5671691298484802, -2.1192705631256104, -0.7008592486381531, -0.06461840867996216, 0.6839194297790527, -0.28060516715049744, 1.8605456352233887, 0.5740469694137573, -0.40683993697166443, -1.4774353504180908, 1.26389479637146, -0.04854559153318405, -0.26493170857429504, 1.5365724563598633, -1.7438948154449463, -0.4388963282108307, -0.6021257638931274, 0.2954084277153015, 1.1207860708236694, -2.2651660442352295, 0.4991756081581116, -1.2929754257202148, 0.33718007802963257, -1.7263000011444092, -0.0013657055096700788, 0.9099007248878479, -1.3484684228897095, 1.5217270851135254, -0.23404355347156525, -0.7341857552528381, -0.20493130385875702, 0.09872297197580338, 0.6472122669219971, -1.5705671310424805, 1.3195693492889404, -1.1837265491485596, 0.029538948088884354, 0.46261125802993774, 0.43883824348449707, -0.3093818128108978, -0.4582388997077942, -1.801815152168274, 0.14012478291988373, -0.7427880167961121, -0.7409336566925049, -0.27308523654937744, -1.949843406677246, -0.31153059005737305, 1.0415785312652588, 1.504105806350708, 0.21586184203624725, -0.29901739954948425, 0.24367055296897888, 1.7260193824768066, 0.9235087633132935, -2.0749764442443848, -0.2952336072921753, 1.1919702291488647, 0.6979646682739258, -1.053283929824829, 0.035352673381567, -1.0493495464324951, -0.19173584878444672, -2.2315499782562256, 1.8206285238265991, 1.2460229396820068, -0.3293524384498596, -0.046535052359104156, -0.3120113015174866, -0.32303646206855774, -0.7544786334037781, -0.2895038425922394, -0.299002081155777, -0.8179200887680054, -1.336729884147644, 0.3556114137172699, 0.19393326342105865, -2.0322721004486084, 0.4059723913669586, -1.0117136240005493, 0.29019108414649963, 0.49751269817352295, 1.4846546649932861, 0.10380831360816956, -2.4304161071777344, -0.6053261160850525, 0.04761628434062004, -0.6758071184158325, -0.39486223459243774, 0.683731198310852, -1.8235937356948853, 0.36263322830200195, -2.781355381011963, 1.9732801914215088, 0.16059480607509613, 0.5245686769485474, -2.2212822437286377, 0.46986719965934753, -0.4470217227935791, -0.049611449241638184, 0.6928843855857849, -0.11478055268526077, 1.1813894510269165, 1.1584327220916748, -1.708616852760315, -1.352523922920227, 0.5620232820510864, -0.014474932104349136, -0.8921028971672058, 0.9734228849411011, -1.3658405542373657, 0.28725290298461914, -0.6909525394439697, 0.2833983600139618], [0.32313060760498047, -0.027208978310227394, 0.8129774928092957, 0.36896008253097534, -0.2594498097896576, -0.2784937024116516, 0.4171132743358612, 1.3853944540023804, 0.21260373294353485, -0.07328415662050247, 0.9679619669914246, 1.941292643547058, 0.26656854152679443, -0.8584747314453125, -0.053516484797000885, -0.1129569485783577, -0.6932686567306519, -0.24147088825702667, -0.9580420851707458, 0.11089585721492767, 0.054957419633865356, -0.012730349786579609, -1.1087394952774048, 0.9153578877449036, -1.7220121622085571, -1.3090236186981201, -0.5273419618606567, 0.6634431481361389, 0.0016338995192199945, -0.3160119354724884, 0.04443327337503433, 0.4641530513763428, -1.5113669633865356, -2.378553628921509, 0.3243047595024109, -2.2349414825439453, -0.934697687625885, 0.9921167492866516, -0.322435200214386, 0.3346090018749237, -0.2729071080684662, -2.2381343841552734, -1.0072494745254517, 1.6340253353118896, -0.12786276638507843, -1.2315198183059692, -0.8513656854629517, 0.940667986869812, -0.447915643453598, -1.2883274555206299, -1.7146035432815552, -1.1515213251113892, -1.4331014156341553, -0.02772882767021656, 0.36812353134155273, 1.0735492706298828, -0.7335183024406433, -0.20233169198036194, 1.4981436729431152, -2.402151584625244, 0.10270065814256668, 0.6322673559188843, 0.023523744195699692, -0.32636117935180664, 0.05555814132094383, -0.10625606030225754, -0.8548524379730225, -0.4826333522796631, 0.9084572196006775, -2.1015961170196533, 0.6265808939933777, -0.5652081966400146, -0.19214025139808655, 1.0195807218551636, -0.01852302998304367, -0.03363683447241783, -0.5726972818374634, -1.8307031393051147, 0.6275049448013306, -0.25932636857032776, 1.0341609716415405, -0.7677632570266724, -0.6300212144851685, -0.8116546273231506, 0.7527550458908081, 1.2289403676986694, 0.5042126178741455, -0.7988077998161316, -0.049931008368730545, -0.5769527554512024, 0.27227357029914856, -0.5790166258811951, 0.6986110806465149, -0.09696293622255325, 1.4514206647872925, -0.6014073491096497, -0.775333821773529, -0.5284813046455383, 0.0948563814163208, 0.04930315166711807, 1.8788851499557495, 1.328109622001648, 0.6670480966567993, 0.8973841071128845, 0.5922962427139282, 0.15602129697799683, -2.625863552093506, -1.5141265392303467, 0.8977667093276978, -1.0230284929275513, -0.821316659450531, 0.22525456547737122, -0.017066897824406624, -0.12098989635705948, -0.38727477192878723, 0.5070142149925232, -0.9521253705024719, 1.1500799655914307, -0.6783366799354553, -1.3358144760131836], [0.6483474373817444, -1.0686966180801392, 2.069446563720703, -1.3691442012786865, 0.22347840666770935, -0.9757699370384216, -0.6601843237876892, 0.6487649083137512, 0.8317922949790955, 0.3025842607021332, 1.9887642860412598, -0.07592304795980453, -0.24167217314243317, 0.5472674369812012, 0.38861143589019775, 1.1206382513046265, -0.9687103629112244, -0.718063235282898, -0.16366137564182281, 0.27165257930755615, 1.2672183513641357, 1.1173994541168213, 0.1313314139842987, 0.2447693645954132, -0.21179091930389404, -2.103423595428467, -0.2310192883014679, 1.093944787979126, 0.4028434753417969, 2.1121387481689453, 0.10938947647809982, 1.2245473861694336, 0.4191216230392456, -2.72997784614563, 0.6731160879135132, -0.4989973306655884, -0.12204781919717789, 0.41929587721824646, -0.4664876461029053, -0.3300809860229492, -0.9128091931343079, 0.028349559754133224, 0.8461489081382751, 1.0673598051071167, -0.656936526298523, -0.30735450983047485, 0.2155163288116455, 1.4149608612060547, -0.3666049838066101, -0.32727786898612976, -1.271608591079712, -2.0141749382019043, -1.6584670543670654, 0.5974868535995483, 2.537358045578003, -0.34925711154937744, -0.2081758975982666, 1.6982485055923462, -0.11752589792013168, 0.31989583373069763, -0.7457242012023926, -0.17777399718761444, -1.5553638935089111, -0.9813026785850525, 1.3038395643234253, 2.2594172954559326, 0.4011577367782593, 1.328555703163147, 0.7445005774497986, 1.0643494129180908, -0.09518683701753616, 1.023206353187561, -1.464676022529602, -1.437983751296997, 0.9952495694160461, -1.1380728483200073, -1.3136636018753052, 0.25476664304733276, 1.4347608089447021, 0.6776323318481445, -0.5473741888999939, 1.2311028242111206, 0.18606862425804138, 0.4645272493362427, 0.32579705119132996, -0.5848984718322754, -1.0702323913574219, 0.14907322824001312, 0.09775111824274063, 0.41200968623161316, 1.89266836643219, 1.8615905046463013, -2.0216479301452637, 1.8616670370101929, -0.7540931105613708, -2.0987906455993652, 1.1391253471374512, -1.610209345817566, 0.41209927201271057, -1.5978152751922607, -0.056977778673172, 0.12959231436252594, -0.7043874859809875, -0.6578981280326843, -2.2686655521392822, 1.5299599170684814, -0.8049854040145874, 0.8060905337333679, 0.04726594313979149, -1.1294175386428833, 0.16672095656394958, -0.6538385152816772, -0.059104014188051224, -1.410118818283081, 1.3377310037612915, -1.4827221632003784, -0.821485698223114, -0.05154066160321236, -0.2153325378894806, -1.5044766664505005], [0.3249069154262543, -0.14346235990524292, -0.1639701873064041, 0.06463667750358582, 1.4560984373092651, -1.2028545141220093, -0.07333815097808838, 0.7063643336296082, 0.7432012557983398, 0.9083603024482727, -1.3642550706863403, -0.2009560614824295, 1.2763721942901611, -0.9903789758682251, -0.18244251608848572, -1.6988996267318726, -0.33468636870384216, -0.30829375982284546, -0.8939545750617981, 0.44356539845466614, -0.27713507413864136, 0.7697088122367859, -0.19878149032592773, 1.7609082460403442, -0.25736188888549805, -0.29569491744041443, 0.026379873976111412, -0.8992936015129089, -0.9103212952613831, 1.025738000869751, 0.758276104927063, -0.980320155620575, 1.2826282978057861, -1.973824143409729, -2.1603939533233643, 0.822260856628418, -1.2360429763793945, -0.3976764976978302, 0.011041851714253426, -0.5155308246612549, -0.20719490945339203, -0.7649738788604736, 0.13459788262844086, 1.1777960062026978, -0.5641155242919922, -0.9137318134307861, 0.07673419266939163, -0.797980785369873, 0.5318179726600647, 1.855308175086975, 0.5992287993431091, 0.10146718472242355, 0.06997685134410858, 1.4320396184921265, 1.5450928211212158, 0.22066079080104828, -1.1021831035614014, 0.28425857424736023, -1.1383520364761353, -1.1017389297485352, 0.05095812678337097, -1.2907023429870605, 1.7783740758895874, -1.3906430006027222, -1.0666292905807495, 0.15316008031368256, 0.3322203457355499, -0.4562535881996155, -0.7983822822570801, -0.002895061857998371, 0.29954084753990173, 0.17302140593528748, 0.21151027083396912, 0.5922262072563171, 0.38988134264945984, -0.33617040514945984, -1.486534595489502, -0.15111927688121796, 0.44444572925567627, -1.001840591430664, 1.7848070859909058, -2.129270315170288, 1.8343273401260376, -0.7704817056655884, 0.3364209830760956, -0.17332518100738525, 1.4092260599136353, -0.2796960175037384, -0.43458911776542664, -0.006493912544101477, 3.0207886695861816, -0.354726105928421, -0.558455228805542, 0.682759165763855, -1.2218351364135742, -1.1681334972381592, 0.0018883782904595137, 0.018302295356988907, 0.8283168077468872, -1.269049882888794, 0.7549628019332886, -1.042095422744751, 0.04433013126254082, 0.13560457527637482, -1.5727708339691162, -0.6923153400421143, 0.44375690817832947, -0.14661400020122528, -1.2692968845367432, 0.31728464365005493, 0.7067455649375916, 1.997567057609558, -0.46677127480506897, 0.3204329311847687, 0.0703153982758522, 0.5949476957321167, -1.4100927114486694, -1.6960530281066895, 1.1415363550186157, -0.9902514815330505], [0.24322164058685303, 1.7199400663375854, -0.9910986423492432, -0.5271525382995605, -0.4876956045627594, -0.8072787523269653, -0.018785813823342323, 0.34204742312431335, -0.8602399230003357, -1.2859482765197754, -1.350682020187378, 0.0786479189991951, 0.741606593132019, 0.774868905544281, 1.1138845682144165, -2.6691153049468994, 2.115427017211914, 1.3396954536437988, 0.06251194328069687, -0.8325822949409485, -0.8600623607635498, -1.7263540029525757, 1.2361371517181396, -0.3672633469104767, 0.4966352581977844, 2.798585891723633, 0.11236384510993958, 0.41552799940109253, -0.36758095026016235, 0.5037676692008972, -0.9162976741790771, 1.4208261966705322, -0.9210105538368225, -1.0061084032058716, 0.20764005184173584, 1.1639083623886108, -0.06007954105734825, 0.9985878467559814, 0.5634527206420898, -0.06354770064353943, 0.03201524168252945, -1.2391588687896729, 1.0321909189224243, -0.5928992629051208, 0.0433841198682785, -0.603050708770752, 0.7153897881507874, -1.707113265991211, -1.2394070625305176, -2.149362325668335, 1.1695376634597778, -0.8532326817512512, 0.31025293469429016, 0.5364035367965698, -0.5649560689926147, 0.5159632563591003, -1.5020307302474976, -0.823455274105072, -1.2184017896652222, -1.7033122777938843, -0.7643463611602783, 1.948452353477478, 0.542898416519165, 0.07050998508930206, -1.1535062789916992, -0.5941375494003296, -0.3953915238380432, 0.01194057334214449, -0.944527804851532, 0.8903903961181641, 0.2066306322813034, 1.5023837089538574, -0.36618518829345703, 0.4513082504272461, -0.5225955247879028, -2.0067005157470703, -0.8609541058540344, -0.5609455108642578, -0.45523086190223694, 0.8480109572410583, -1.565152883529663, -1.3606854677200317, 1.2813416719436646, 1.4236690998077393, 1.64772367477417, 0.2569674849510193, -0.5756471753120422, -0.019548634067177773, -0.19904209673404694, 0.11699328571557999, -0.8087506294250488, 1.0467779636383057, -0.4218837022781372, 1.7633185386657715, -0.7417510151863098, -0.32249751687049866, 0.4163358509540558, -1.7825841903686523, -1.0390266180038452, 0.07101389765739441, 1.425816297531128, -0.1538563221693039, 0.04748429358005524, 1.21256685256958, -0.605617105960846, 0.9828584790229797, -0.6641773581504822, -0.9272313714027405, 2.6023149490356445, -0.5653820633888245, -1.177181363105774, 1.9317693710327148, -0.4283031225204468, 0.19085170328617096, -0.5222883224487305, 0.13216881453990936, 1.1094412803649902, -1.3449395895004272, 0.45260855555534363, 0.21396034955978394], [-0.5451384782791138, -0.15794134140014648, -0.4263239800930023, 0.4335014820098877, -0.5199103355407715, 0.8985302448272705, 0.47697725892066956, 1.78172767162323, 2.160649299621582, -0.4158767759799957, -1.8632146120071411, -0.2919869124889374, 0.43841537833213806, 0.9513620138168335, 2.372377395629883, 0.9863153100013733, 1.1043446063995361, -2.3111796379089355, 0.1603768765926361, 1.086551308631897, 0.18419858813285828, 0.47163835167884827, -2.7657992839813232, 0.6524624824523926, 0.8988662958145142, 1.2115204334259033, 1.4609853029251099, 0.06298790872097015, 0.9533321857452393, -0.2225172221660614, -0.3873426020145416, -0.07416032254695892, -1.418208122253418, -0.09221165627241135, -1.4240731000900269, -1.195835828781128, -0.1643667072057724, -0.9663201570510864, -0.08151647448539734, -1.608210802078247, 0.6107601523399353, -1.5388044118881226, 0.25255733728408813, 1.1819640398025513, 0.39797788858413696, 0.15589717030525208, 1.038715124130249, -0.3593265414237976, 0.015614768490195274, 0.5912395715713501, 0.20090383291244507, -0.3874891996383667, 0.4488929808139801, -1.3234347105026245, -0.4058123826980591, -1.1614843606948853, 1.2213705778121948, -0.4605090320110321, 0.5760800838470459, 0.8711798191070557, 0.22034335136413574, -1.818466305732727, -1.2754325866699219, -0.3977580666542053, -0.7186502814292908, 0.07514870166778564, -0.379741907119751, 1.4273279905319214, -0.9812726378440857, -1.2690565586090088, 0.5724125504493713, -0.5047119855880737, -0.3651615381240845, -0.5332454442977905, -1.3958474397659302, -0.8211387395858765, 0.6230403780937195, 0.9732698798179626, 0.23019355535507202, -0.5398111343383789, 0.5150139927864075, 0.8553625345230103, 1.267533302307129, 0.31255996227264404, 1.0044786930084229, 0.09271246194839478, -0.22546300292015076, -0.8958447575569153, -1.2030270099639893, -0.7712231874465942, -0.5687161684036255, -0.6002331376075745, 2.0709216594696045, -0.48145791888237, -0.7303879261016846, -0.6313670873641968, -0.5509853959083557, 0.5452646613121033, 0.5471583604812622, -0.11866342276334763, 0.5902485251426697, 0.8989474773406982, 0.611943781375885, -0.08398431539535522, -0.7136625051498413, -0.42473670840263367, -0.7124592065811157, -0.9676629900932312, -1.5185757875442505, -0.42994341254234314, -0.4978024661540985, -0.4313353896141052, -0.7298068404197693, -0.2741508483886719, -0.4483153522014618, 2.159104824066162, -1.029577374458313, 0.521776020526886, -0.012270054779946804, -1.9465463161468506], [-2.223862409591675, 0.30604225397109985, -0.0854937732219696, 0.17867693305015564, 0.04139160364866257, -0.562712550163269, 1.5101240873336792, 0.03047485649585724, 0.16328908503055573, -1.3101197481155396, 0.15810714662075043, 0.8722419738769531, 0.6555881500244141, -2.5561678409576416, 0.5194845795631409, 0.378280907869339, 0.9850087761878967, 0.8675923943519592, 1.6891940832138062, 1.4417622089385986, -0.35586586594581604, -1.0598464012145996, 0.19000662863254547, -0.8741930723190308, -0.054339878261089325, 0.3841284215450287, -0.06813165545463562, 1.2504686117172241, 0.10154638439416885, -0.15976212918758392, -0.186278834939003, -1.2091262340545654, -1.8295892477035522, 1.4983245134353638, -0.9234954118728638, -1.6538279056549072, -0.3349628448486328, 0.28246811032295227, -0.0002949938934762031, 0.35370516777038574, -0.34396806359291077, 0.697665810585022, -1.3911281824111938, 0.988195538520813, 0.21733756363391876, 0.9072592854499817, -1.2290722131729126, -1.9834644794464111, 0.7010235786437988, 0.32540151476860046, -0.49264076352119446, -0.47310104966163635, 0.2329770028591156, -1.0008753538131714, -1.0777803659439087, 0.2295578569173813, 0.4559541940689087, -0.29272884130477905, 0.06756774336099625, -1.3461071252822876, -0.7845456004142761, -0.6382560729980469, 0.23157493770122528, -1.4995414018630981, 0.13481880724430084, -1.30502188205719, 0.2812276780605316, -0.15848927199840546, -1.0604499578475952, -0.31592145562171936, 0.39947155117988586, -0.5581737756729126, 0.49750441312789917, 0.7793676257133484, 0.46591678261756897, 0.9042007327079773, 1.103829264640808, 0.45367297530174255, 1.4220126867294312, -0.5561615228652954, 2.09324049949646, 1.4727896451950073, 1.350105881690979, 0.8564589023590088, 0.2017032951116562, 0.3215273916721344, -1.3022303581237793, 2.5820791721343994, -0.07763951271772385, -0.1914990246295929, 0.47044458985328674, 0.8040525913238525, 0.3151571452617645, -0.05736541748046875, -0.48937588930130005, 1.3645977973937988, 2.5497655868530273, 1.0519682168960571, -0.17875978350639343, -1.7673760652542114, 1.5031758546829224, 0.8222202062606812, -1.239038348197937, -1.333126425743103, -1.6367648839950562, -0.39556118845939636, 1.4580734968185425, 1.5744071006774902, 0.26346874237060547, -0.7088501453399658, 0.744225263595581, 0.9871848821640015, 0.2706495225429535, 0.04213092103600502, -0.9625146389007568, 0.38063570857048035, -0.660528302192688, -0.7979078888893127, -0.2033601999282837, 1.5989431142807007], [1.0911279916763306, -1.0718529224395752, -0.5733713507652283, -0.047403011471033096, 0.1227039322257042, -1.1398067474365234, -0.3695237934589386, -1.0363343954086304, 0.7050753235816956, -1.1198612451553345, -0.02425147220492363, 0.09765580296516418, 1.4813199043273926, -0.5027796626091003, -0.36036309599876404, -0.3362278938293457, -0.10848494619131088, 0.6970869898796082, -1.1987414360046387, 0.8739716410636902, 0.7301898002624512, -2.208373785018921, -0.6023231744766235, 0.31214994192123413, 0.33670774102211, 1.0881258249282837, 0.9121119379997253, -0.49559226632118225, 1.3658349514007568, -1.702467441558838, -1.3004753589630127, 0.486064076423645, 0.8085591793060303, -0.5150802135467529, 0.44578707218170166, -0.8150664567947388, -0.7124006748199463, 0.15059107542037964, 1.4269189834594727, -0.06826379895210266, -0.38687193393707275, 0.524712860584259, 0.23252218961715698, 1.2174497842788696, 0.9963765740394592, 0.6934976577758789, -2.0771961212158203, -0.6256092190742493, -1.1116646528244019, 0.9391329288482666, 0.5198653936386108, 0.30599984526634216, 2.2672860622406006, 0.9087686538696289, 0.20764614641666412, -1.1669132709503174, -0.06658826023340225, -0.23744261264801025, 1.4377981424331665, 0.1259251981973648, 1.352097749710083, -0.9388031959533691, -2.253229856491089, 0.6564323902130127, 0.3282977044582367, 0.9843454360961914, -0.7357457876205444, 1.5819014310836792, -0.6424630284309387, 1.4259850978851318, -1.0775251388549805, -0.006851070560514927, 1.1265723705291748, 0.17151765525341034, -0.38253024220466614, 0.26606839895248413, -0.9651509523391724, 0.5293261408805847, 0.9335781335830688, -1.1744887828826904, 1.2129002809524536, -1.6819988489151, 0.10049843043088913, -0.5193341970443726, -1.5827556848526, 1.866809368133545, 1.0203744173049927, -0.8539160490036011, 0.08622738718986511, 1.4512903690338135, 0.8375176787376404, -0.8315911293029785, 0.7017072439193726, -0.66999751329422, -1.2886074781417847, -0.7803928256034851, 0.8518673181533813, -0.6315172910690308, -1.757951021194458, 0.5652275681495667, -0.10231369733810425, 0.30782926082611084, 0.2808752655982971, -0.6103477478027344, -0.7701120376586914, -0.015962909907102585, -0.8985671401023865, 0.5007846355438232, -0.6647242903709412, -0.6218623518943787, 0.10716433823108673, 0.012138794176280499, -1.1175627708435059, 0.22825375199317932, -0.3569437861442566, -0.30318060517311096, 0.635280966758728, 0.3314109146595001, 0.7136330604553223, -0.9559982419013977], [1.030983567237854, 2.2285187244415283, 0.8992863297462463, -0.889224112033844, 0.9713841676712036, 0.3200409710407257, -0.46804100275039673, 1.1681339740753174, -0.25412818789482117, 0.9309934973716736, 0.21011409163475037, -1.3511128425598145, 0.6822473406791687, -1.2106664180755615, 0.037296853959560394, -2.22774338722229, 0.7311631441116333, -1.2812150716781616, 0.5952149033546448, -1.5193477869033813, -0.5214417576789856, -0.31197497248649597, 0.4822944700717926, -0.7738569378852844, -1.3510074615478516, -0.9027316570281982, -0.32704398036003113, -0.5506368279457092, 1.0224609375, 1.6467065811157227, -0.2777285873889923, 0.8953779935836792, 0.15977422893047333, -2.042062520980835, 2.2163102626800537, 0.10891253501176834, -0.1115981861948967, -1.4639981985092163, 1.2255325317382812, -1.406421422958374, -0.7527298927307129, -1.0899367332458496, 0.34692108631134033, 0.19007371366024017, 0.5190904140472412, 1.3785569667816162, 0.7904948592185974, 0.5980409979820251, 1.7455859184265137, -1.651787519454956, 1.462533712387085, -0.528807520866394, 0.030518047511577606, -0.3227643072605133, 1.2631198167800903, 2.249393939971924, -0.48095986247062683, -0.9314961433410645, -0.12282625585794449, 0.9459007382392883, -0.7345632910728455, 0.2973388135433197, -1.1762409210205078, 0.2972833812236786, 0.6470638513565063, 1.6161893606185913, 0.18687480688095093, -1.4986066818237305, 0.5969874262809753, -1.6363149881362915, -0.946738600730896, -0.6420528292655945, -0.8054819703102112, 0.8865967392921448, 0.021322311833500862, -1.9499437808990479, 0.9928723573684692, 1.7647454738616943, 0.9784942269325256, -1.3705675601959229, 0.3781527876853943, 0.7126585245132446, 0.009714889340102673, 0.5187591910362244, -0.40506306290626526, 0.7687543630599976, -2.8275392055511475, -0.1110227182507515, -1.2548080682754517, 0.9938073754310608, 1.0165091753005981, 0.42190006375312805, 0.9399849772453308, -0.2919008433818817, -0.7783746719360352, 0.9417169690132141, -1.5975615978240967, 0.20111113786697388, 0.5233155488967896, -0.3488732874393463, -1.5721434354782104, -1.5257086753845215, -1.0256414413452148, 0.18312375247478485, -0.23072212934494019, 0.10831377655267715, 0.28469088673591614, 2.3740899562835693, 2.2983322143554688, -1.0761479139328003, 0.7336266040802002, 0.7062647342681885, -0.46011388301849365, 0.12651243805885315, 0.17941328883171082, -0.7678080797195435, 0.7818176746368408, -1.0606213808059692, 0.5083126425743103, -1.2340470552444458], [0.7250650525093079, -0.5429284572601318, 0.04964706674218178, -1.123829960823059, 0.09959369152784348, -0.9166343808174133, -0.770875871181488, 0.1208924800157547, -0.9462897181510925, -1.2827322483062744, -1.1245934963226318, 0.12307827174663544, 0.37484991550445557, -1.4788260459899902, -0.9186446666717529, 0.9859974384307861, 0.2210269719362259, -0.5461819171905518, 1.711806058883667, 0.7084164619445801, 0.7822285890579224, 1.5747393369674683, 0.4650646150112152, -1.149933099746704, 0.8819608092308044, -2.114895820617676, 1.243240475654602, 0.23346257209777832, -0.13089622557163239, -0.8844255208969116, 1.52560555934906, 0.3454996943473816, -1.3890219926834106, 1.8372400999069214, -0.6553482413291931, -0.9850709438323975, -0.40650761127471924, 1.3752250671386719, -1.4281713962554932, -0.15374724566936493, 0.6648285388946533, -0.2017391473054886, -1.167212724685669, -0.38242119550704956, -0.8807917237281799, 0.381521999835968, 0.6381809115409851, 0.6035093665122986, -1.368565320968628, -0.23777209222316742, 0.06585849821567535, -1.4349620342254639, -0.04659919813275337, -1.5508227348327637, -1.2304221391677856, 0.9327641725540161, -1.5910552740097046, 0.49093902111053467, -0.9704238176345825, -0.45580610632896423, -0.8056815266609192, -0.41345033049583435, 0.408712774515152, 0.8613118529319763, 0.3541457951068878, -0.2057638317346573, -0.14020957052707672, 0.5879685282707214, 0.8866955637931824, 1.1974891424179077, -0.03330089524388313, 0.24575461447238922, -0.6557918787002563, -0.5173020958900452, 0.1504736840724945, -0.5968456864356995, -0.6829365491867065, 1.4658139944076538, 0.3331781029701233, 1.0744346380233765, -0.730874240398407, -0.7349996566772461, 1.3248547315597534, -2.23919939994812, -0.589925229549408, 0.6870444416999817, -0.7408112287521362, -0.5594375133514404, -0.5396604537963867, 0.8182856440544128, 2.2822844982147217, 1.4069948196411133, 0.22643549740314484, 0.9816474318504333, 1.5250083208084106, -0.5337545275688171, -0.641412079334259, -1.146328091621399, -1.7359882593154907, -0.671581506729126, -0.7263115048408508, 2.5211496353149414, 0.2018904834985733, -2.1677238941192627, 0.8769683837890625, 0.7808186411857605, -0.5666409134864807, 1.0928049087524414, -0.7293898463249207, 2.7315990924835205, 0.5869554877281189, 0.28948357701301575, 1.0228984355926514, -0.25202634930610657, 2.9428679943084717, 0.08007842302322388, -1.3964626789093018, -0.20697449147701263, -1.1903679370880127, 0.14363163709640503], [0.0704590231180191, -1.2398664951324463, 0.6868571639060974, 0.34377217292785645, 1.0524598360061646, 1.5583813190460205, 0.2458980828523636, -1.9743421077728271, -1.1934484243392944, 0.32370609045028687, 1.2095528841018677, -0.5743086934089661, -1.0336792469024658, -0.6508583426475525, -1.1758928298950195, 1.587239146232605, 0.02176213636994362, -1.22758150100708, -0.5246815085411072, -1.0106390714645386, -0.6653895974159241, 0.6332935094833374, 0.730190634727478, -2.39927339553833, 0.8689979910850525, 0.7120835185050964, 1.8165277242660522, 0.9803594946861267, -1.0470263957977295, 0.3539445102214813, 1.0393341779708862, -2.3044450283050537, 0.16050848364830017, 0.48502323031425476, -0.24405689537525177, -1.1545007228851318, -0.9013349413871765, -0.421865850687027, -0.2837730944156647, 0.858902633190155, -2.2889866828918457, -1.167873740196228, 0.0027835085056722164, 0.08652184903621674, -0.3991207778453827, -1.8730202913284302, -2.3847367763519287, -1.4243180751800537, -1.0661333799362183, 0.30840906500816345, 0.8163333535194397, -1.126564860343933, 0.5252450704574585, 0.5075749158859253, 0.1853652149438858, -0.380958616733551, -0.371885746717453, -0.0596875362098217, -1.5077731609344482, 1.730994462966919, -0.9295581579208374, 0.29734867811203003, -0.7977672815322876, -1.4676777124404907, -0.24908575415611267, 0.924644410610199, -1.6157326698303223, 2.8564655780792236, 0.08962973207235336, -0.6067163944244385, -0.0330854132771492, 0.8721438050270081, -1.1670277118682861, -0.15103207528591156, -0.8065234422683716, -0.13165906071662903, 0.2730043828487396, 2.6951913833618164, 0.9621621966362, 0.02434012107551098, -1.532751441001892, 0.4209335446357727, -0.0881929025053978, 1.8997783660888672, -0.8827328681945801, 2.3548507690429688, -0.4036335349082947, -0.5979136824607849, 0.020175429061055183, 0.05009579658508301, -0.3598616421222687, 0.7781549096107483, -2.4791059494018555, -0.6782459020614624, -1.7771117687225342, -1.042250633239746, 0.4639069437980652, -0.5950741767883301, 0.6624486446380615, -0.22023651003837585, -1.3102827072143555, 0.5606351494789124, -0.5674034357070923, -0.1510988026857376, -1.6946884393692017, 0.690666913986206, -0.25634267926216125, 0.5639047622680664, 0.9224246144294739, -0.08419127762317657, -0.5717495083808899, 0.7112239599227905, 1.6671137809753418, 1.6172479391098022, -0.6540983319282532, 0.7407076358795166, 1.1864144802093506, 0.6742861270904541, -0.8851985335350037, -1.0650749206542969], [0.37130841612815857, -0.4101247787475586, -1.6507716178894043, -1.1023359298706055, -0.8390540480613708, -0.38599228858947754, 1.3858387470245361, 0.28973910212516785, 0.31010380387306213, -0.21133330464363098, 0.33951130509376526, 0.9841939210891724, 0.714093029499054, -0.9301784038543701, -0.18793587386608124, -1.0396900177001953, 0.6344760060310364, 1.5695204734802246, 1.3904097080230713, -0.9184467792510986, -0.15979565680027008, 0.12862662971019745, 1.4577308893203735, 2.4280309677124023, 0.7612741589546204, 1.2895808219909668, -0.6470229625701904, -0.4488661289215088, 0.3684721291065216, -0.6091482043266296, 0.24688392877578735, 1.3868387937545776, 0.5587196946144104, -0.8197762966156006, -0.8495732545852661, -0.35570672154426575, -0.053801279515028, -0.06403598189353943, 0.3164041340351105, -0.8341379761695862, -0.39162588119506836, 0.17687399685382843, -0.22061164677143097, 1.1313179731369019, 0.8471644520759583, 1.3586424589157104, 0.13680976629257202, 2.6991565227508545, 0.5341743230819702, 1.1949193477630615, -0.3618440330028534, 0.5689785480499268, 1.3715811967849731, -0.3241503834724426, 0.23802325129508972, 0.8845754861831665, -1.7051665782928467, -0.5700269937515259, -0.1452813297510147, -1.9744319915771484, 1.7312726974487305, -0.8099133968353271, -0.0671125054359436, 1.0656661987304688, -1.398737907409668, 0.32311490178108215, -0.7493618130683899, 0.8397952914237976, -1.257839560508728, 0.4645540118217468, 1.032339334487915, -0.7842772006988525, 0.5880832672119141, 0.4733732044696808, -1.595163106918335, 0.7744123935699463, -1.9295369386672974, 1.0401968955993652, -1.1815145015716553, -0.25064635276794434, -0.6737932562828064, -1.2864015102386475, 0.5251597762107849, -0.45033153891563416, 0.8064524531364441, -0.4522697925567627, -1.8037679195404053, -0.42655542492866516, -1.902186632156372, -0.29049673676490784, 0.27834364771842957, 1.3134502172470093, 0.9949844479560852, -2.2903811931610107, -0.5954277515411377, -1.152248740196228, -0.20239301025867462, 0.21023103594779968, 1.316209316253662, -0.5266958475112915, -0.3832947909832001, 0.302854061126709, 0.6929255723953247, 1.4966466426849365, -0.6972922086715698, -0.7999746799468994, 0.20722553133964539, -0.7669544816017151, 0.31333374977111816, 0.4312581419944763, 0.987733781337738, -0.1903010904788971, -0.909124493598938, 0.6298097372055054, -0.5068712830543518, 0.9841073751449585, 0.02631162665784359, -0.16711460053920746, -0.5861654877662659, -1.3765608072280884], [0.6522998809814453, 0.8440004587173462, -0.4036056399345398, -0.7392233610153198, 0.6594799757003784, -0.3877011239528656, -0.05259251967072487, -0.31762176752090454, -0.19305779039859772, 0.2502586245536804, 0.23712225258350372, 1.4035141468048096, 0.6025147438049316, -0.1219673827290535, 1.447342038154602, 1.0990837812423706, 0.3284926414489746, -0.46275168657302856, -0.1246747374534607, 0.3601636290550232, -1.3069088459014893, -0.48386502265930176, 0.14682790637016296, 1.1089600324630737, 1.9769927263259888, 2.6324541568756104, -0.491347998380661, 1.1728605031967163, -0.6278731226921082, -1.1121692657470703, -1.0644663572311401, 1.9811735153198242, 0.19196513295173645, 0.29567858576774597, 0.07617972791194916, -1.3322631120681763, -1.3526135683059692, -2.372864246368408, 2.539016008377075, 0.745424211025238, 0.724205732345581, -1.5149800777435303, 1.3631216287612915, 0.48748573660850525, -1.1209394931793213, 0.4191724359989166, -0.2622124254703522, 0.738031804561615, 0.03431358560919762, -0.45607078075408936, 1.4008477926254272, -1.3244531154632568, 0.9386081099510193, -0.05776667967438698, 1.3254817724227905, -0.10929539799690247, -1.1624053716659546, 0.7268009185791016, -1.1624075174331665, -1.436181902885437, -0.2379555106163025, 0.5683016777038574, 2.021230459213257, 0.9313498735427856, 0.08618126064538956, -0.897018313407898, 1.161383867263794, -0.08123879134654999, -0.5700616836547852, 1.260850429534912, 1.188408613204956, 0.08925428241491318, -0.6456252336502075, -1.1850286722183228, -0.4241939187049866, 0.9475989937782288, 0.5176984667778015, -1.2599434852600098, 1.1994946002960205, 1.1279603242874146, -0.009426714852452278, -0.0451168492436409, -0.27064505219459534, -1.7476537227630615, -0.32708871364593506, 0.7238477468490601, -1.5000780820846558, 1.8515013456344604, -1.9085819721221924, 1.3594751358032227, -0.5928968787193298, -1.1808258295059204, 0.9067444801330566, 0.0027479161508381367, -0.004717644304037094, -0.42073625326156616, 0.4123133420944214, 0.46600157022476196, 0.027106471359729767, 0.2137119174003601, -0.9900821447372437, -0.38635551929473877, -1.3187822103500366, -0.1734934151172638, 0.4237752854824066, 0.5349614024162292, -0.45391038060188293, 0.3716592490673065, -0.008059678599238396, -0.12383704632520676, -1.423110008239746, 1.4116342067718506, -0.6518740057945251, -0.5245523452758789, 0.6859320998191833, 1.5113545656204224, 0.9198359251022339, -0.23365378379821777, 0.35859060287475586, -0.3037954866886139], [0.737906277179718, 0.7483927607536316, -0.9916292428970337, -1.1441878080368042, 0.784604012966156, 0.37005168199539185, -0.873691976070404, 0.3934785723686218, 0.1486792415380478, 0.23951353132724762, -0.5409562587738037, -0.9253293871879578, 0.3849065899848938, -0.662125825881958, 1.3292447328567505, 0.542510449886322, 0.45179930329322815, 1.4167671203613281, -0.539563000202179, 1.698302984237671, 0.45954442024230957, 1.7490181922912598, -1.9308116436004639, 0.46602460741996765, 1.2884645462036133, -2.8535523414611816, 1.0970828533172607, 0.12155758589506149, 2.537935256958008, 0.09591159969568253, -0.07608793675899506, -0.3999024033546448, 0.032295361161231995, -0.7463936805725098, -0.5245198607444763, -0.6393404603004456, 0.6383894681930542, 0.9594704508781433, -0.5923290848731995, -1.8504974842071533, -0.7511792778968811, -0.19668534398078918, 2.2625179290771484, -1.547027349472046, 2.1118218898773193, -0.07564181834459305, 0.1618877798318863, -0.4931265413761139, -0.8621547222137451, -1.433176875114441, -0.5806938409805298, -1.0456116199493408, 0.5322531461715698, 0.24661289155483246, 0.11657711863517761, -0.5934841632843018, 0.6147476434707642, -2.0815627574920654, 1.0313657522201538, -0.5696038603782654, 0.515387237071991, -0.7516905069351196, 1.4710232019424438, -0.6939197778701782, -0.8165849447250366, -0.6764565706253052, 0.4265999495983124, -0.5579985976219177, 0.4121623933315277, 0.6037830710411072, -0.07797110825777054, 0.21654993295669556, 0.1859550029039383, -0.5348864197731018, -0.44899314641952515, 0.8477396368980408, 0.523361086845398, -1.6250032186508179, -1.1251368522644043, -0.8604361414909363, 0.4774489104747772, 0.9239204525947571, 0.8953971266746521, -0.22966676950454712, 1.3271907567977905, -0.028319384902715683, 1.2814494371414185, -2.0742180347442627, -0.2556546926498413, 0.022244974970817566, 0.05307656154036522, -0.8656243085861206, 0.5579621195793152, -0.21537625789642334, -1.755957841873169, -0.3622700870037079, 1.0706781148910522, -0.5190044641494751, -0.9301369190216064, -1.1600978374481201, 1.3655517101287842, -1.4679665565490723, 0.11475181579589844, -0.4198616147041321, 0.4418669641017914, -0.444225013256073, 0.5313597321510315, -0.5227505564689636, 1.813472032546997, -0.8180710077285767, -0.24328204989433289, -0.7939631342887878, -0.4614843726158142, 0.703829824924469, -1.1936790943145752, 0.4664584994316101, 0.29518625140190125, -0.4814549386501312, -0.24206940829753876, 0.8419747948646545], [-1.9105528593063354, 2.056317090988159, 0.04055318981409073, 1.2352912425994873, 0.889227569103241, -1.6894298791885376, 0.8889039754867554, -1.5315154790878296, 0.25991976261138916, -0.7405297160148621, 0.8397281169891357, 0.5291991829872131, -1.1570509672164917, 0.5068197250366211, -0.06429699063301086, -1.9955401420593262, 0.09506560862064362, -0.5685625076293945, -0.7868481278419495, 0.06929376721382141, 0.05033814534544945, 1.5415749549865723, -0.008115004748106003, 0.9498574733734131, -1.0040385723114014, 1.1350407600402832, 0.626596987247467, 0.4078809320926666, 0.26643192768096924, 1.831618309020996, 0.5565855503082275, 2.379523277282715, 0.24019074440002441, -0.4496341347694397, -1.170282244682312, -0.1030370444059372, -0.8769077062606812, 0.27590876817703247, -0.6356552243232727, 0.4066205322742462, 0.5983325242996216, 1.185033917427063, 1.851924180984497, 0.8542386889457703, -0.266498863697052, -1.2162994146347046, -1.4572715759277344, 0.7134946584701538, 1.0480973720550537, -0.9545071125030518, -0.1701229065656662, 0.973537802696228, 0.8710753321647644, 1.3726098537445068, -1.1401900053024292, 0.9187358021736145, 0.8130397200584412, 1.7561707496643066, -0.2971774637699127, 0.568716824054718, 1.2043808698654175, -0.8338123559951782, -1.258226752281189, 0.7594798803329468, 0.7907488346099854, -0.27722781896591187, 0.04851362854242325, -1.5393095016479492, 1.4427878856658936, 0.746488094329834, 1.90044105052948, -0.8933354616165161, 0.6724106669425964, -0.22200994193553925, 1.5598299503326416, -0.7035354971885681, 1.5447096824645996, 1.1261268854141235, -0.5734602212905884, -1.2215485572814941, 0.23196831345558167, -0.0016389527590945363, 0.057249765843153, -0.7602643966674805, 0.958830714225769, 1.440706491470337, -0.6772346496582031, -0.39536088705062866, 0.8387073278427124, -1.1991982460021973, 0.6971856951713562, 0.458645224571228, -1.5167748928070068, 1.4422886371612549, 0.10298613458871841, -0.07164400815963745, 0.8523001074790955, 0.9718480110168457, 0.11108366400003433, -0.7208434343338013, 0.13634586334228516, -0.023869438096880913, 1.7823227643966675, -1.2194898128509521, 1.245673656463623, 0.5725195407867432, -0.016575800254940987, -1.3455702066421509, 0.6554772257804871, 0.5946669578552246, 0.13788338005542755, -1.0127955675125122, -0.8404234051704407, 0.19982030987739563, -0.34220635890960693, -0.08341926336288452, 0.6262340545654297, 0.7952718734741211, -1.0247777700424194, 0.7406632900238037], [-0.732036828994751, 0.5735571980476379, 0.5708404183387756, -1.2780667543411255, 1.3275660276412964, 0.7165027856826782, -0.17401839792728424, -0.8931511640548706, 0.04939553514122963, 0.48445576429367065, 0.948891818523407, -0.557197630405426, -0.9047127366065979, -0.3220832347869873, 0.5606257319450378, 1.3346335887908936, 1.9455629587173462, 0.755885899066925, 0.7595426440238953, 0.19087664783000946, 0.43788814544677734, -1.1237075328826904, 0.05984657257795334, 0.665132999420166, -0.0064130970276892185, -0.2974293828010559, 1.070881724357605, -0.34267663955688477, 1.0109610557556152, 1.0308144092559814, -1.2773774862289429, 0.604344367980957, 0.34025028347969055, -0.8760701417922974, -0.22710351645946503, 2.133202314376831, -1.3544915914535522, -0.30125340819358826, 1.013009786605835, -0.991401195526123, -1.6694936752319336, -0.4824930429458618, -1.1835453510284424, -0.25309303402900696, -0.9161943197250366, -0.1682615727186203, 1.2146068811416626, 0.25460338592529297, 1.5646213293075562, 1.2492320537567139, -0.08722498267889023, -0.22956925630569458, 0.46469151973724365, -0.5446867346763611, 0.8130894303321838, -0.09472581744194031, 1.8800058364868164, 0.7418508529663086, -1.1632903814315796, -0.6898857951164246, -0.6408781409263611, 1.7031606435775757, -0.8065938949584961, 0.5224019289016724, 1.5953741073608398, -0.9460148811340332, 0.7367029190063477, -1.3564456701278687, -0.43921321630477905, 1.2877863645553589, 0.5496894121170044, 0.21099257469177246, 0.6674314141273499, -1.1306747198104858, -1.2746028900146484, -0.5090450048446655, 1.0150649547576904, 1.0694340467453003, -0.21443097293376923, 1.6207062005996704, 0.19757719337940216, 1.0827124118804932, -0.5483108758926392, -0.9348928928375244, -1.8089337348937988, 0.8182654976844788, 1.007885217666626, -1.2025431394577026, -1.1042124032974243, -2.2337939739227295, -0.9288063645362854, -0.30704858899116516, 0.035161323845386505, -0.31010210514068604, -1.277538537979126, 1.9017456769943237, 1.5172741413116455, -3.026057720184326, 0.6308707594871521, 0.6047993302345276, 1.3319690227508545, -0.643963098526001, -1.2555427551269531, 0.4531893730163574, -0.5043491125106812, -0.49593067169189453, 0.4275882840156555, 1.3329516649246216, 0.5092743039131165, 1.2885758876800537, 0.22519974410533905, -1.1066023111343384, 0.4401859641075134, -2.2892251014709473, -0.5258438587188721, 2.1705265045166016, -0.12264192849397659, -0.1419038474559784, 0.004364421591162682, 0.154031440615654], [-0.5595206618309021, -0.5983306169509888, -0.028576169162988663, 1.3363264799118042, 1.0976207256317139, 1.2057750225067139, 0.03688259422779083, -0.4502717852592468, 0.4948327839374542, 0.6854088306427002, 0.5235974788665771, 0.4938339293003082, -0.9355325698852539, 0.2523828148841858, -0.09202810376882553, -1.1948919296264648, 0.23151062428951263, -1.9100184440612793, 0.03191552311182022, 0.6616382002830505, 0.10751509666442871, 0.2133583426475525, -1.0048788785934448, 0.6840087175369263, 1.093310832977295, -1.0271925926208496, 0.35654959082603455, 0.6965299844741821, 0.0469839908182621, 1.7889424562454224, -0.14610838890075684, -1.0947335958480835, 0.7222654819488525, 1.5469928979873657, -1.076838731765747, -0.8427623510360718, -0.3208843469619751, 0.042514584958553314, -1.6486577987670898, 0.07742583006620407, 0.338142067193985, -0.0007712472579441965, 0.18078091740608215, -0.8128073811531067, 1.1382490396499634, -0.9276521801948547, -0.1794791966676712, 0.7820008993148804, 0.1729135811328888, 2.021592617034912, 0.1753830462694168, 0.28980737924575806, 1.1300654411315918, -1.0449786186218262, 0.5434958934783936, 0.33722254633903503, 0.41829046607017517, -0.1458410918712616, 0.04314180091023445, 0.49979403614997864, 0.527489960193634, -1.578216314315796, 0.41551896929740906, -0.36837947368621826, 1.2279152870178223, 1.4505829811096191, 1.6025080680847168, 0.1122395247220993, 1.079723596572876, -0.6430769562721252, 0.43876633048057556, 1.0053921937942505, 1.2059768438339233, -0.20605021715164185, 1.172460675239563, -0.30154332518577576, -0.35837000608444214, 0.24392060935497284, -0.2759775221347809, -0.532413125038147, -0.009943654760718346, -0.3599271774291992, 0.11183042079210281, 0.23617063462734222, -0.24867142736911774, 0.09928949922323227, -0.12356872111558914, -1.2238961458206177, -0.041147492825984955, -0.34742310643196106, 0.6470843553543091, -1.339453101158142, -0.14816786348819733, 1.6798022985458374, -0.7981303930282593, -0.3933117091655731, 0.5487587451934814, -0.09878642857074738, 1.307006597518921, 1.0517717599868774, -1.0749433040618896, -0.40226462483406067, -0.16174018383026123, -0.03755765035748482, 0.7380408644676208, -0.2195623815059662, 0.3861177861690521, -0.9724484086036682, -0.3983340263366699, 0.2992958724498749, -1.1796201467514038, -1.5699334144592285, 1.222517728805542, -0.0878031924366951, 0.19609284400939941, 0.6395059823989868, 0.11576489359140396, 1.3790003061294556, 0.6566707491874695, 1.0081480741500854], [0.6476108431816101, -1.3217391967773438, 1.2935479879379272, -0.6137697696685791, -0.18455249071121216, 0.736943244934082, -0.4318609833717346, 1.5555245876312256, 1.3727145195007324, 0.5289273858070374, -0.8276650905609131, -0.015699904412031174, -0.027284838259220123, -0.5835251212120056, 0.3757738173007965, -1.6221081018447876, 0.8552077412605286, -0.5040518641471863, 0.5626787543296814, 2.1516776084899902, 0.6661020517349243, 1.7414005994796753, 0.007500763516873121, 0.5932537913322449, 0.2532636523246765, 0.9230364561080933, -0.3171251714229584, -0.3547291159629822, 0.23966869711875916, -0.2754419147968292, -2.1324660778045654, -0.09345902502536774, 0.17428208887577057, 0.7788899540901184, 0.41098082065582275, 1.6729512214660645, 1.6343127489089966, 0.7671816945075989, 2.038339853286743, -0.6090784072875977, 0.9158369302749634, -0.0838087722659111, 0.7079631090164185, 0.29503899812698364, 0.4660435616970062, -1.0990291833877563, 0.08944476395845413, -0.37101230025291443, 1.02572500705719, 1.2294025421142578, 0.5385234951972961, -0.6924669146537781, 0.19227300584316254, -0.3883070945739746, -1.2538999319076538, -0.16880610585212708, 0.3983244299888611, -0.6260097622871399, -0.00781327672302723, -0.18975253403186798, -0.2939693033695221, 0.49011507630348206, -0.9797715544700623, 0.9833572506904602, -0.3216538727283478, -0.12379153072834015, -0.19645985960960388, 0.0998353585600853, 0.5308328866958618, 0.8288145065307617, -0.2045021653175354, -0.6302961707115173, -0.38727203011512756, -0.44065073132514954, 0.5790166854858398, -1.136081576347351, 0.10988564789295197, -0.6057692170143127, -0.9958541393280029, -0.4923591911792755, 0.5315595269203186, -0.4635288119316101, -0.23143796622753143, 0.23105914890766144, 3.387453556060791, -0.7281396389007568, 0.3057618737220764, 1.1782361268997192, -0.7498754262924194, -1.0750685930252075, -1.4107712507247925, 0.2004614770412445, -1.1394160985946655, 1.6473376750946045, -0.5191003084182739, -0.6418747305870056, -1.603421688079834, -0.276004821062088, 0.4725840091705322, 0.8089562654495239, 0.8770223259925842, -0.7905000448226929, 1.2142308950424194, 1.241968035697937, -0.9276862740516663, 0.7762709259986877, -0.35236820578575134, -1.3969076871871948, -0.58746337890625, 0.07970937341451645, 0.6337664127349854, -1.467068076133728, -0.10930070281028748, 0.4243375062942505, -0.656816840171814, -0.12393146753311157, -1.5708391666412354, 0.5611662864685059, -0.8234288692474365, -0.9581374526023865], [0.8678690195083618, -1.5420466661453247, 1.274879813194275, 0.6388021111488342, -0.7059143781661987, 1.238706350326538, -1.476805329322815, -0.30846044421195984, 0.7705522179603577, -0.05943140387535095, 0.29873549938201904, -1.2315702438354492, -1.4418011903762817, 0.16238561272621155, -0.1815374493598938, 0.24045255780220032, 3.032027006149292, -0.8100578784942627, -1.471214771270752, -1.2700504064559937, -0.34539830684661865, 0.168521910905838, -0.4419699013233185, 1.7587988376617432, 0.7361465692520142, -1.079341173171997, -0.6945285797119141, 0.612436056137085, -1.3735504150390625, -0.7625259757041931, 1.484063744544983, 0.5334348082542419, -0.47765398025512695, -0.19081902503967285, -1.1837352514266968, 0.4183465540409088, 0.3320428431034088, -1.4164541959762573, -0.4190048575401306, -0.7506306767463684, 1.2305763959884644, -1.5575594902038574, -1.087133765220642, 1.066207766532898, -0.76488196849823, 0.9758895635604858, 0.42005184292793274, 0.5708692073822021, -0.7675814032554626, 0.10422376543283463, 0.6377757787704468, 0.11205212771892548, 0.2659704387187958, -0.024697674438357353, 0.23458243906497955, 1.8142685890197754, -0.23905330896377563, -0.26365986466407776, 1.6935076713562012, 0.8500123023986816, -1.128279685974121, 1.2024973630905151, 0.8705001473426819, 0.2838931977748871, 0.5758756995201111, 1.8950576782226562, 0.3348696529865265, -0.7000681757926941, -1.1512776613235474, 0.1560177505016327, -2.3276546001434326, -0.6463563442230225, 1.8205419778823853, 1.457184076309204, 1.3613027334213257, -1.8458280563354492, -0.6895285248756409, -0.910608172416687, 0.6199020147323608, -0.8864309191703796, 0.3448619544506073, 1.6382417678833008, 2.158299207687378, 0.8628748059272766, -0.6181864738464355, 0.8664895296096802, 0.13906724750995636, 0.27393075823783875, -0.9386619329452515, -1.7417964935302734, -1.2869887351989746, -0.3719702661037445, 0.8653000593185425, -0.909591555595398, -1.2498064041137695, -0.3315139710903168, -0.7427006959915161, 0.8817075490951538, -0.01717963255941868, -0.8056277632713318, 0.2800818681716919, -0.226389080286026, -0.5075236558914185, -0.3166014552116394, -0.5119445323944092, 0.09279990941286087, -0.015009569004178047, 0.1268848031759262, -0.7753220200538635, 0.3372994363307953, 0.24001798033714294, 0.6057862043380737, -0.9938426613807678, -0.6339901089668274, 0.7681030035018921, -0.7504010200500488, 0.1319209635257721, 0.40854117274284363, 0.9914217591285706, 0.10048243403434753], [-0.9617040157318115, -0.2917090952396393, 0.4208046495914459, -2.7496113777160645, 0.5079836249351501, -0.061435267329216, 1.3985706567764282, -0.1218380257487297, 0.13254499435424805, -0.1280953288078308, 1.87412691116333, -0.65207439661026, -0.9996955394744873, 0.22808201611042023, 0.15322771668434143, 1.3452723026275635, 0.6671773195266724, 1.9950891733169556, -0.8506467342376709, -0.7484566569328308, 1.2373363971710205, -1.9332902431488037, 0.6135518550872803, -0.3789812922477722, -1.996482014656067, -0.6097016334533691, -0.16418425738811493, -0.3000027537345886, 0.8592984676361084, 0.12099674344062805, -0.20792624354362488, -0.4167094826698303, -1.9610952138900757, -0.08674285560846329, -1.6316757202148438, 1.6743558645248413, -0.9731559753417969, -0.7729307413101196, 1.890263557434082, 0.8551400899887085, -1.107033610343933, -1.7325315475463867, 0.647717297077179, -0.08775275945663452, 2.0338451862335205, 1.5206387042999268, -0.3148542046546936, 2.7675065994262695, 0.9210700988769531, 1.9261103868484497, 2.1017229557037354, -0.789982259273529, 0.6248196959495544, -0.9616432785987854, 2.1047568321228027, 0.4653928875923157, 0.7047112584114075, 0.5753819346427917, -0.034201622009277344, 0.7334272265434265, -0.17643433809280396, -0.2953542470932007, -0.5450536012649536, 0.8343291282653809, -0.201545849442482, 0.6315497159957886, 0.28276926279067993, -0.6819652915000916, -2.536045789718628, 0.2529961168766022, 0.4028696119785309, 0.27500057220458984, 1.015962839126587, -1.62378990650177, -1.454526662826538, -2.4308671951293945, 0.47209614515304565, -0.5195772051811218, 0.5264727473258972, 0.3314646780490875, -0.3354732096195221, 0.4352092146873474, -0.06325983256101608, 0.4674714505672455, 0.02714182250201702, -0.3482540249824524, -1.0834200382232666, -0.6463531851768494, -0.47639578580856323, 0.6382392644882202, 0.4478280246257782, -0.09275057911872864, -1.2570594549179077, 2.0283541679382324, 0.08593614399433136, -0.47399991750717163, 1.5139868259429932, 0.23932789266109467, 0.09154138714075089, -0.81322181224823, 1.9419803619384766, 0.464306116104126, -0.8823103308677673, -1.5626002550125122, -0.0638142004609108, 0.013441303744912148, -0.28692978620529175, 0.12502719461917877, -0.9179781079292297, -0.6230837106704712, 0.19234640896320343, -1.3008368015289307, 0.4348367154598236, 0.08101793378591537, 0.522646963596344, -0.7824726700782776, -0.24011372029781342, 1.4594511985778809, 0.38518619537353516, -0.0049133095890283585], [0.2552378475666046, -0.9388655424118042, -0.2330140471458435, -0.5420334935188293, -1.1209553480148315, 1.5249313116073608, 0.8989070653915405, -0.6573570370674133, 2.3589835166931152, 0.39742568135261536, 0.5172153115272522, -0.16467851400375366, -0.48840901255607605, -1.049900770187378, -1.2196135520935059, -1.236017107963562, -0.4116040766239166, 1.105854868888855, 1.7041652202606201, -0.40083998441696167, 0.5140768885612488, 1.1773921251296997, 0.03444845974445343, 0.1535496562719345, -0.6736528277397156, -1.2311930656433105, -0.011604955419898033, -1.113404631614685, -0.46443596482276917, 0.6161810159683228, 1.2507319450378418, 0.6534293293952942, -1.5773299932479858, 0.5694034695625305, 0.5872386693954468, -0.8047362565994263, -0.16850799322128296, 0.8012001514434814, -0.18191514909267426, 1.292417287826538, 1.1589175462722778, 0.8564799427986145, 0.5487168431282043, 0.5744989514350891, -0.6054846048355103, -1.6567680835723877, -0.8195652961730957, -1.355042815208435, -0.8914506435394287, 0.28733494877815247, -0.05874965712428093, -0.15337370336055756, -0.6440843343734741, -1.130859375, -1.5705848932266235, 1.5575294494628906, -0.6185775995254517, 1.6595017910003662, -0.4337501525878906, -1.0713266134262085, -0.21121746301651, 2.157262086868286, -1.4612222909927368, -1.3486583232879639, -0.30798575282096863, 1.3558138608932495, -0.49612507224082947, 0.5189534425735474, 0.18925735354423523, -1.5638560056686401, -0.7416325807571411, -0.9038026332855225, -1.1028037071228027, 0.541206955909729, 1.2113157510757446, -0.16139061748981476, 0.17118807137012482, -0.8872796297073364, -0.5220162868499756, -0.8004326224327087, -1.589390754699707, -0.027942953631281853, 0.5276615023612976, 0.32671883702278137, 1.505751371383667, 0.4832710325717926, -0.2291899174451828, -0.009713791310787201, 1.0069507360458374, -0.7783370018005371, 0.6314771175384521, -0.16787895560264587, 0.12802956998348236, 1.2759290933609009, 1.0886969566345215, 0.997947096824646, 1.7638535499572754, 0.9748650193214417, 1.585871696472168, 0.02236734889447689, -0.09679952263832092, 0.7486290335655212, -1.7901620864868164, 0.1971641629934311, 0.7948578000068665, 0.8676992654800415, -1.287211537361145, 0.8777394890785217, -1.1898612976074219, -0.002183103933930397, -0.7644003033638, 0.7940472364425659, 0.799838125705719, 2.3622846603393555, -1.470346450805664, 0.6605157256126404, -0.12299174070358276, 0.38789430260658264, 0.19033251702785492, -0.18680521845817566], [0.4308037757873535, -2.519584894180298, 0.07237303256988525, 0.6412539482116699, -0.4258590042591095, -0.12677019834518433, 1.6108094453811646, -1.2248567342758179, 0.7607886791229248, -1.005304217338562, -2.739384651184082, -1.6040329933166504, -0.36409541964530945, 0.6872639060020447, 0.35100284218788147, 1.2437959909439087, 0.4671785831451416, 0.40639379620552063, 0.09182658791542053, 0.75395667552948, -0.2993200421333313, -1.1821966171264648, 0.8352463841438293, -0.44692015647888184, 0.3058396577835083, -0.4680187702178955, -1.173923134803772, -0.4572904706001282, -0.8437173962593079, -0.5832446813583374, 0.6098585724830627, -0.3936772644519806, -0.6923108100891113, -0.30484336614608765, 1.7977917194366455, -0.21735233068466187, -1.449080228805542, -0.29681891202926636, 0.41395989060401917, 0.8857674598693848, 0.6118180155754089, -1.7786877155303955, -1.533945083618164, -0.5773202180862427, 0.08534081280231476, 1.6150610446929932, 0.7655880451202393, -0.6135830879211426, -0.5683481097221375, -1.3813085556030273, -1.3607162237167358, 1.8411426544189453, -0.22783677279949188, -1.174201488494873, -0.7467904090881348, 0.33376824855804443, 1.4183156490325928, 0.059791456907987595, 0.5692693591117859, 0.6612203121185303, -0.31088128685951233, -0.7323870062828064, -0.6410870552062988, -0.2044503539800644, -0.7122237086296082, 1.2420496940612793, -0.5701414942741394, -0.9578268527984619, 0.28505492210388184, -0.3000790476799011, -2.2613773345947266, 0.016201645135879517, -1.201818823814392, 1.1944959163665771, -1.122738003730774, 0.07994542270898819, 0.647537350654602, -1.1929458379745483, -0.276923269033432, 1.016770839691162, -2.076449155807495, 0.24787907302379608, -1.3714905977249146, -0.19644244015216827, 0.42882341146469116, 2.0222902297973633, -0.11363048851490021, -0.17316782474517822, 0.3523612916469574, 1.0638951063156128, -0.10031580179929733, -1.0904436111450195, 1.240600347518921, -0.9705675840377808, 0.9853936433792114, -0.45014283061027527, -1.3480727672576904, -0.5436533093452454, 0.277182400226593, 0.3520406186580658, 1.3270268440246582, 1.0276122093200684, -0.4302006959915161, 0.779191792011261, 1.0251632928848267, -0.7415688633918762, -1.3152825832366943, -0.5440282821655273, 0.4844728410243988, -0.6887473464012146, -0.8383435010910034, -0.3336211144924164, 0.9479290843009949, 0.5523141026496887, -0.27545151114463806, -0.6393004655838013, 0.08217966556549072, 0.3448951840400696, -0.10510049760341644, -0.5886642932891846], [-0.15277883410453796, 0.739276647567749, 1.080501914024353, -0.3834209144115448, 0.4014744758605957, 0.2234497368335724, -0.4624139964580536, 1.2535430192947388, -0.09402356296777725, -1.5263457298278809, 0.04824456572532654, 0.20352257788181305, 0.28601357340812683, 1.7024226188659668, 0.04259563609957695, -0.13932102918624878, -2.763988971710205, -0.2365403026342392, -0.6540567278862, -1.135292410850525, -0.9081140756607056, 0.9695084691047668, 1.3536646366119385, -2.1220741271972656, 0.5005143880844116, 2.0215775966644287, -1.50812566280365, 2.037850856781006, -1.4967063665390015, 2.9928228855133057, 0.2609989643096924, 0.3847438097000122, -0.4865627884864807, -1.781254529953003, -1.9494776725769043, -0.512432336807251, -1.0977102518081665, -0.15070290863513947, -0.26529228687286377, 0.8503903150558472, -2.012336015701294, -0.38440024852752686, -1.3936866521835327, -0.0026189256459474564, -2.238577365875244, -0.3065091371536255, -1.4747518301010132, 0.4211893379688263, 0.7206711173057556, -0.4529333710670471, -1.2208597660064697, -1.5318368673324585, 0.8387032747268677, 0.03905978053808212, -0.44826409220695496, -1.9692836999893188, 0.21318887174129486, -1.0949305295944214, 0.04499030113220215, -0.8947969079017639, 0.7325940132141113, 0.5328196287155151, 1.2407668828964233, 0.1875305026769638, 1.5373626947402954, -1.5564640760421753, -0.20723271369934082, -0.06841466575860977, 0.6138046383857727, -0.05059760808944702, -0.8316490054130554, 0.6866275668144226, 1.1482881307601929, 0.4740680754184723, 0.8776708245277405, 0.7076016664505005, 0.6581367254257202, -0.352464884519577, -0.6692858934402466, -1.394723653793335, 0.3345581591129303, -0.6726298928260803, 0.591844379901886, -1.4863989353179932, -1.4893598556518555, -1.6770061254501343, -1.502537727355957, 0.37713393568992615, -0.43474557995796204, 1.2582646608352661, 0.5586121678352356, 2.025360107421875, -0.04404127597808838, -1.3387680053710938, -0.348958820104599, -0.9287703037261963, 0.2777283787727356, -0.09173514693975449, 1.2268247604370117, 2.122913122177124, -1.0395078659057617, -0.520241379737854, -0.37011122703552246, 1.332891583442688, 0.5437517762184143, -2.3894312381744385, 1.0913326740264893, 2.1456942558288574, -0.5826561450958252, 1.3800792694091797, 1.949603796005249, -0.3552755117416382, 0.023800048977136612, -2.0343470573425293, 0.4723847210407257, -0.7708017826080322, -0.5596860647201538, 1.396034598350525, -0.15739914774894714, -0.49300748109817505], [-1.012866497039795, -1.4396443367004395, -0.6144487857818604, -0.44766244292259216, -0.5434590578079224, 0.8759494423866272, -0.726796567440033, -2.3375988006591797, -0.7885679602622986, 0.1557464450597763, -0.7112945914268494, -1.3495556116104126, 0.4486875534057617, 0.8159266710281372, -0.0666656494140625, 1.0502344369888306, -1.2119605541229248, 0.1053965762257576, 2.3462088108062744, 1.2646713256835938, 0.10674545168876648, -1.6433873176574707, -0.025241291150450706, 0.7759187817573547, 0.40176576375961304, 0.9486849904060364, -0.47272568941116333, -0.5177618265151978, -0.4231443703174591, 1.0566171407699585, -0.9226640462875366, 2.1284124851226807, -2.0920491218566895, -0.347082257270813, 2.386791706085205, -1.3316293954849243, -1.2972301244735718, 0.040263574570417404, 0.23470117151737213, 0.6412240862846375, 0.19977617263793945, -0.9409527778625488, -0.1692901849746704, 0.40555381774902344, 0.5036781430244446, -0.3282420039176941, 0.729394257068634, -0.3466283977031708, -0.3713110685348511, 0.2567286491394043, 0.07140374928712845, 0.6383631825447083, 0.3032079041004181, 0.18356826901435852, -0.2931664288043976, -0.7327717542648315, 0.5518469214439392, 0.017960861325263977, 0.569987416267395, 0.5923219323158264, 0.17959730327129364, -0.2303844690322876, -0.21815907955169678, 0.36573439836502075, -1.1365056037902832, 0.24420048296451569, -1.3879286050796509, 0.741529643535614, -0.013121225871145725, 0.12104646861553192, 0.32868409156799316, -0.02838602103292942, 0.22394689917564392, -0.42629873752593994, 1.467440128326416, -0.03635213151574135, -0.4456302523612976, 0.13323618471622467, 0.33839547634124756, -1.714231252670288, 2.030654191970825, -0.12789863348007202, 0.78853440284729, -0.7192931175231934, 1.4021308422088623, 0.5809121131896973, 0.23098021745681763, 1.6204839944839478, -1.3382203578948975, -1.0642956495285034, -1.1871075630187988, 0.3760124742984772, 0.1563757210969925, -0.6462482213973999, 0.30461645126342773, 0.6484350562095642, 0.6164810657501221, 0.8801853060722351, -0.2954619228839874, -0.2782125174999237, 1.8121689558029175, 0.45212817192077637, -1.5590745210647583, 1.8492822647094727, -0.8094394207000732, 0.9516939520835876, -0.4237889051437378, -0.30535370111465454, 0.24582146108150482, 1.1469296216964722, 0.5368690490722656, -0.3300742506980896, 0.5020841360092163, -0.4100424349308014, 0.8018454313278198, 1.280402660369873, 1.1321663856506348, -0.3792352080345154, 0.27179858088493347, 0.34820234775543213], [0.40819886326789856, 0.31985700130462646, 0.23600704967975616, 0.8346303105354309, 0.23416657745838165, 0.4458642303943634, -2.0006263256073, -1.0308912992477417, 0.41081029176712036, -0.05309921130537987, 0.0733635202050209, 2.1867127418518066, -0.21975409984588623, -0.49951428174972534, -1.3212170600891113, 0.2265239655971527, 1.1443618535995483, -0.8233353495597839, 0.5550379753112793, 0.7408815026283264, 1.8493529558181763, -1.1267017126083374, -0.6532347798347473, -1.7652415037155151, 0.6176347732543945, -1.8004907369613647, 1.4286798238754272, -0.21382488310337067, -0.8108037114143372, -0.10921934247016907, -1.1259359121322632, 1.6195250749588013, 0.7454566359519958, 1.9564772844314575, -1.8547950983047485, 1.0601674318313599, 0.34804463386535645, -0.2820920944213867, 0.39831581711769104, 0.3499833643436432, -0.29147660732269287, 0.8077465295791626, 0.03447965532541275, -1.8844342231750488, 1.0292596817016602, -0.787216305732727, -0.04964994639158249, 1.3560676574707031, 0.9845553636550903, 1.1617786884307861, 1.3375656604766846, -0.3141542375087738, -0.2338383048772812, 1.4158185720443726, -1.8469593524932861, -0.7028511166572571, 1.0434467792510986, -0.5394594669342041, -0.7911250591278076, 1.2615528106689453, 1.19912588596344, 1.68288254737854, 0.3319864869117737, 0.07146355509757996, 1.5734469890594482, 0.4264969229698181, -0.357831209897995, -0.3194788992404938, 0.6357250809669495, 2.663240671157837, 1.7583447694778442, 0.10658329725265503, -0.3753150403499603, 1.3409303426742554, 0.7714252471923828, 1.526559591293335, 0.2426879107952118, 1.1085015535354614, 1.3608527183532715, -0.05262291058897972, -0.6892882585525513, -1.3124210834503174, -0.6727056503295898, -0.2173924297094345, 0.5685222148895264, -0.4392493963241577, -0.003440207103267312, 0.03306177631020546, -1.6928108930587769, 0.6864508986473083, -1.3369691371917725, -0.050194185227155685, -0.16064146161079407, 0.28323179483413696, -0.06543638557195663, 1.3712776899337769, 0.4213915467262268, -0.798058807849884, -0.10636495798826218, -0.11698523163795471, -0.759446918964386, 1.0274970531463623, 1.1903083324432373, 0.6407425403594971, 0.1512678563594818, 0.7183403968811035, 1.0801193714141846, -0.924992561340332, -2.409634590148926, -0.9781930446624756, 1.2542550563812256, -0.266107439994812, 0.5865329504013062, 0.47710567712783813, -0.7152770757675171, -2.971038579940796, -0.23329930007457733, 1.0490909814834595, -0.5332385301589966, -0.37413156032562256], [-0.8824447393417358, -1.6996911764144897, 0.6513057947158813, 0.7156005501747131, -1.2685601711273193, -0.2992868721485138, 0.16546101868152618, -0.12062423676252365, 0.8006478548049927, 0.3673771917819977, 1.1220062971115112, -2.40362548828125, -1.2037872076034546, 1.2427427768707275, 0.8651228547096252, 1.0845023393630981, -2.4459869861602783, 0.5104043483734131, -0.3558320701122284, 0.2644922137260437, -0.3127972185611725, 0.864200234413147, 0.493304580450058, 2.2835397720336914, -0.5064070820808411, 0.667054295539856, 0.16927634179592133, -1.2462660074234009, -1.0661598443984985, -0.40091726183891296, 0.1962304562330246, 0.14290104806423187, -0.6645597219467163, -0.4052125811576843, 0.5621274709701538, -0.2872826159000397, 2.1410863399505615, -1.7483348846435547, -0.6273157000541687, -0.37499725818634033, 1.1515567302703857, -0.4406922161579132, 0.7020317316055298, -1.736128330230713, 0.8534733057022095, -0.11650940775871277, -2.443913221359253, -0.24446764588356018, 0.9643362760543823, -0.18583595752716064, -0.17498160898685455, -2.166499137878418, -0.9812597036361694, 1.7515138387680054, 1.5036824941635132, 0.9187511205673218, 0.5721718072891235, -1.3236194849014282, -0.3814634084701538, 0.18360799551010132, -2.00723934173584, -1.2496442794799805, -1.3494551181793213, 0.422545462846756, -1.8238976001739502, -0.8268508315086365, -0.3092816174030304, 1.9836126565933228, 0.2036498337984085, 0.9860100746154785, -1.835388422012329, -1.721004843711853, 0.5481628775596619, -0.13892009854316711, -0.020705483853816986, 0.6552199721336365, -1.4317653179168701, -1.6566120386123657, 0.07488756626844406, 0.0772019475698471, 1.0493183135986328, -0.6242027282714844, 2.0431416034698486, -0.43871915340423584, 0.03798164054751396, 0.8192963600158691, 0.2896212339401245, 0.22955694794654846, -0.3452778458595276, -1.0022836923599243, -0.10787380486726761, 1.3784092664718628, -0.19664707779884338, 0.309048593044281, -0.3920551836490631, 1.3083207607269287, -0.3470368981361389, -0.33261165022850037, 0.9970996975898743, -2.002446413040161, -0.005446638911962509, -0.056312207132577896, -0.19352635741233826, 0.7089542150497437, 1.030847191810608, -1.9635193347930908, 0.20747485756874084, 2.0246498584747314, 0.8892433643341064, -0.6985228061676025, -0.7338740825653076, -0.36338570713996887, 1.2619997262954712, 0.4084526300430298, 0.16933855414390564, -0.5576600432395935, -0.4193424880504608, 0.4641870856285095, -0.5359401106834412, 0.29774758219718933], [-1.1217057704925537, -0.03207840025424957, -0.6510201692581177, -0.7916076183319092, 0.5737510919570923, -1.0705692768096924, -1.5011608600616455, -0.4271189570426941, -0.31249451637268066, 0.487217515707016, -0.4041968584060669, -0.907953679561615, -0.6984654068946838, 1.3315272331237793, -0.48152685165405273, -0.05598277226090431, -0.5558561086654663, 0.3729759752750397, -1.5856496095657349, -1.4098429679870605, 1.1336495876312256, 0.7268700003623962, -0.9309836626052856, -1.5660431385040283, -0.5039134621620178, 1.3198879957199097, -0.3293246924877167, -0.3120812177658081, 1.881677508354187, -1.4820425510406494, -0.4011114835739136, 0.6378965973854065, 0.016674036160111427, -0.08842325955629349, 0.3488333523273468, 0.993928074836731, 0.1298404484987259, -0.009581551887094975, 0.4403120279312134, -0.6649451851844788, -0.015710074454545975, -0.2751123905181885, 0.6174688935279846, -0.022380182519555092, 1.0370628833770752, 0.617721438407898, 0.617199718952179, -1.3449430465698242, 0.8563385605812073, 1.6191436052322388, 1.8108363151550293, -0.2618359625339508, 1.3689488172531128, -0.6863324642181396, 0.7170454263687134, -0.08724362403154373, -0.8063790798187256, 0.524198591709137, -1.299845576286316, 2.307422637939453, 0.7192052602767944, 0.788544774055481, -0.6939155459403992, -1.3422044515609741, -0.3602233827114105, 0.740970253944397, 1.0655254125595093, 1.0277259349822998, 2.34784197807312, 1.8698244094848633, -0.015254240483045578, 1.2566936016082764, -0.9346708059310913, 1.805224061012268, 1.7142075300216675, 0.15337719023227692, -0.6623233556747437, -0.3631882965564728, -0.8830748796463013, 1.2071388959884644, -0.33059051632881165, 1.9098052978515625, 2.3309950828552246, 0.33894938230514526, 1.1443802118301392, 0.7671713829040527, 0.7197301983833313, 1.3967761993408203, -0.47877511382102966, -2.052685260772705, 0.751430332660675, -0.5971691012382507, -0.4559107720851898, 1.4035743474960327, 0.3739878535270691, 0.1826045960187912, 0.2046613097190857, -0.4250134229660034, -1.347973346710205, 1.0250921249389648, -1.5966966152191162, 0.2116604745388031, 0.5982136130332947, -0.9424132704734802, -0.055469390004873276, 1.4682016372680664, -0.32039010524749756, 1.1345973014831543, 1.073940396308899, -0.7876421809196472, -1.8752129077911377, 1.228195309638977, 0.7444503307342529, -1.378058910369873, 0.1977204829454422, 0.6870120167732239, 0.6720234751701355, -0.4427981674671173, -0.21770167350769043, -0.7775837182998657], [0.4514397978782654, 0.7285839915275574, -0.5551133751869202, -0.7543365955352783, -1.8887410163879395, -0.5156265497207642, 1.8189538717269897, -0.14647792279720306, -0.137327641248703, 2.7476963996887207, 1.173708200454712, -0.054412271827459335, -0.4300428628921509, -0.31085142493247986, 0.7399883270263672, -0.6953175663948059, -1.7876298427581787, -0.18109047412872314, 0.013031892478466034, -0.9767631888389587, -0.7847668528556824, -0.8626230359077454, -0.1972007304430008, 0.3238210082054138, -2.0915966033935547, -1.8615999221801758, 0.45903050899505615, -0.30319592356681824, 0.7245149612426758, -1.3155549764633179, -0.02911403961479664, -0.788754403591156, 0.5383834838867188, -0.4592246115207672, -0.46840620040893555, -0.4559354782104492, 0.9148585796356201, 1.667496919631958, -0.19151990115642548, -0.23346775770187378, 0.8601394295692444, -0.38407424092292786, -0.6311679482460022, -0.6974385976791382, 1.0680146217346191, -0.2975098490715027, -0.00783506315201521, 1.4012384414672852, 0.38716068863868713, -0.7275959253311157, 0.3712356984615326, 0.6454734206199646, -0.45527681708335876, -0.39200979471206665, -2.2381858825683594, 0.8786595463752747, 0.08255463093519211, -0.48805707693099976, -1.5777158737182617, 0.383952796459198, 0.18641729652881622, -0.9688409566879272, 0.8435407280921936, -0.6512153744697571, 0.542957603931427, 0.18889236450195312, 1.1348642110824585, -0.9723511934280396, -0.24252912402153015, -0.7243993878364563, -0.36534273624420166, -0.7893389463424683, 0.05385982245206833, -0.6281658411026001, -1.9748960733413696, 0.7306012511253357, 1.2144091129302979, 1.2307116985321045, 0.32792553305625916, 0.4064699411392212, 0.8570945858955383, 1.6183829307556152, 0.22533714771270752, 1.1198557615280151, -1.0160850286483765, -1.15627121925354, -0.9313149452209473, 1.2603435516357422, 1.1953927278518677, 1.0482629537582397, -0.8257263898849487, 0.8943570852279663, 0.7952256202697754, 0.4236100912094116, -0.14761708676815033, -0.35007232427597046, -0.8502950072288513, 1.3154211044311523, 0.540185272693634, -0.00926946196705103, -0.03103802166879177, -0.380711168050766, 2.5362112522125244, 0.7302268147468567, 1.1163101196289062, 0.6960111260414124, -0.504314661026001, -0.48611316084861755, 2.0091867446899414, -1.0743095874786377, 0.004008129704743624, -1.0457769632339478, -0.4875560998916626, -0.03855622187256813, 1.366329550743103, -1.0176866054534912, 0.2202521115541458, 0.8386892080307007, 1.5470895767211914, -1.1867189407348633], [0.15972453355789185, 0.15204325318336487, -1.1921756267547607, 0.13953667879104614, 0.40367773175239563, 1.5717252492904663, 0.16590139269828796, -1.7205666303634644, 1.6774239540100098, -0.07341530919075012, 0.2697238624095917, 0.8751545548439026, -1.6783716678619385, 0.45531871914863586, 0.7289085388183594, -1.4321463108062744, -0.24023760855197906, 1.907509207725525, -0.490526407957077, -0.4815804064273834, -0.6882347464561462, -0.11299639195203781, 1.980300784111023, -1.3605273962020874, -0.7050504684448242, 0.1629670411348343, -0.09700138121843338, -0.9733257293701172, 2.179713249206543, 0.31756868958473206, -1.299971580505371, -1.4131947755813599, 0.842796802520752, -0.3035315275192261, 0.48981574177742004, 1.0490965843200684, 0.31747791171073914, -0.513766884803772, 0.9609779715538025, 2.028599262237549, 0.46219557523727417, 0.8327795267105103, 1.842108130455017, 1.2271984815597534, -0.45023250579833984, -1.4651328325271606, -1.159077525138855, -0.14954634010791779, -0.9651411771774292, -0.7509585618972778, -0.8728225231170654, -0.05332808196544647, 1.3980278968811035, 1.4737919569015503, 0.24004046618938446, 0.20662105083465576, -2.274475336074829, -0.4767536222934723, -0.296823114156723, 0.14987260103225708, -1.5953044891357422, -0.3710080683231354, 0.1475364863872528, 0.7688829302787781, -0.4955517649650574, -0.030233848839998245, -0.16728578507900238, -0.8085818886756897, 1.8254719972610474, 0.35857513546943665, 0.12245804071426392, -0.9362239837646484, 1.3724596500396729, 1.6609123945236206, -0.8676722645759583, -0.7884414792060852, 0.09516710788011551, 0.21635226905345917, -0.875038206577301, 1.2239201068878174, 0.8071027398109436, 1.0433130264282227, -0.675183892250061, -0.6545348763465881, 1.0568935871124268, 0.5133309364318848, 1.984887957572937, -1.7305214405059814, 1.197178602218628, 0.4503043591976166, -0.07185545563697815, 2.0298984050750732, -0.6015542149543762, -1.0124928951263428, 1.5236780643463135, 0.19709835946559906, -0.2008742392063141, 2.7726187705993652, -0.5475915670394897, -0.34743979573249817, 1.0823110342025757, -0.2954184412956238, -0.030772555619478226, 0.9693551659584045, 1.5940147638320923, -0.43732747435569763, -0.6289849877357483, -0.06261282414197922, 0.8264744877815247, 1.009431004524231, 1.8782684803009033, 0.29835137724876404, -0.40909960865974426, 0.4089840352535248, -0.23474068939685822, 0.6384919285774231, -0.05411068722605705, -0.1404249519109726, 0.11465068906545639, 2.1554527282714844], [-0.6645727753639221, -0.33271515369415283, -0.6756590008735657, 1.74050772190094, -0.3481674790382385, -1.1735838651657104, -1.5742889642715454, 0.8099678754806519, -0.3683095872402191, -1.3369414806365967, -0.16575637459754944, 1.988179326057434, 1.9764842987060547, 0.2075061947107315, -1.788923978805542, -0.007456284016370773, -1.7821720838546753, -2.732104539871216, -0.36248496174812317, -0.19313454627990723, -1.1840916872024536, 0.14024457335472107, -0.14791423082351685, -0.6939573884010315, -3.062685012817383, -1.0418390035629272, -0.11087542027235031, 1.2298628091812134, -0.4742509126663208, -0.18328142166137695, -0.8530393242835999, -2.28806734085083, -0.9806081652641296, 0.28581562638282776, 1.4395352602005005, -1.85090970993042, 0.7877293229103088, 1.4588061571121216, 0.033349085599184036, -1.3987551927566528, 1.4673314094543457, 2.219243288040161, -0.4512738585472107, 0.2915176451206207, 1.8417702913284302, -0.8256831765174866, 0.6757257580757141, -0.14632076025009155, -0.7790563702583313, -0.28185221552848816, -1.924384593963623, -0.6361923813819885, -0.8508780598640442, 0.7507032752037048, 0.23964226245880127, -0.012020020745694637, 0.5277561545372009, -0.22521762549877167, 0.910386860370636, 2.6554858684539795, 0.5405058264732361, -1.3208873271942139, -0.8333702087402344, 1.2644762992858887, -0.2390630543231964, 1.7975469827651978, 0.20090855658054352, -1.2793095111846924, 1.1308993101119995, -0.47305428981781006, 1.403294324874878, -2.351006031036377, -1.1149076223373413, 1.3495173454284668, -0.34452176094055176, -2.2392101287841797, 1.3506048917770386, 0.6401435136795044, 1.9588953256607056, -0.0367208868265152, -0.9059242606163025, -0.44632092118263245, 0.3069641590118408, 2.135650873184204, 0.9346885681152344, -1.017560601234436, -1.9158443212509155, -1.6130478382110596, -0.4954456388950348, -0.2590411603450775, -2.8382530212402344, 1.3407427072525024, -1.2034786939620972, -0.15455234050750732, 0.47729411721229553, 0.2585155665874481, -1.3478320837020874, 0.134250670671463, -1.2700755596160889, -1.0724639892578125, -1.0642879009246826, -1.4971489906311035, -1.7260335683822632, 0.26114532351493835, -0.09060318768024445, -0.5601568222045898, 1.7558149099349976, -0.20189125835895538, -0.11568248271942139, 0.7662992477416992, -0.6017885208129883, -0.7837536931037903, -0.39111530780792236, 1.267703890800476, -0.15679942071437836, -2.403177499771118, -0.7706058025360107, 0.31290191411972046, 0.8164169192314148, 0.9326136708259583], [-1.2532649040222168, -0.8537001609802246, -0.6903829574584961, 0.5253074765205383, 0.1427001953125, 0.4142325520515442, -1.1840367317199707, -0.05085700377821922, 0.8215920329093933, -1.2555140256881714, -1.6307772397994995, 0.4836498498916626, 0.18989460170269012, -1.2516404390335083, -0.9779391288757324, 0.04002651572227478, 1.9906474351882935, 0.8400716185569763, -0.19387611746788025, 1.3787811994552612, -1.5539191961288452, 3.2846899032592773, -3.241483688354492, -0.15042909979820251, 1.831275463104248, -1.1029853820800781, -0.15786828100681305, 0.48114293813705444, -0.9021444916725159, -0.10397481918334961, -1.137346863746643, 2.637408494949341, 0.9759296774864197, 1.80045747756958, -0.5406997203826904, 0.8025983572006226, -1.5029630661010742, 1.1902974843978882, 0.39937812089920044, 0.3080369830131531, -0.42738664150238037, -0.29254189133644104, -0.3131316602230072, -1.6282652616500854, -1.5456997156143188, 0.2759178876876831, 0.18530286848545074, -0.5972629189491272, 0.9519706964492798, 1.0641121864318848, 0.13773304224014282, -0.19284391403198242, -0.2776337265968323, 0.6229243874549866, 1.6735093593597412, -0.25767990946769714, 1.4613832235336304, 0.5368468761444092, -1.4030259847640991, 0.0040994021110236645, -1.2886502742767334, -2.2813408374786377, -0.5624304413795471, 0.9756120443344116, 1.5428962707519531, -0.7846867442131042, -0.950748085975647, -0.7066771388053894, -0.7751907706260681, -0.5034272074699402, 0.6578029990196228, -0.40213656425476074, -1.2606396675109863, -0.715267539024353, 1.1900098323822021, 1.9612782001495361, 2.192345380783081, 1.7037758827209473, 1.871196985244751, 1.7272999286651611, -0.9156107902526855, 0.3172740936279297, 0.929997980594635, 0.26884448528289795, 0.16630619764328003, 0.04317895695567131, -1.5164144039154053, -1.8034285306930542, -1.5003983974456787, 0.2819503843784332, 0.6700318455696106, 1.0244112014770508, 1.7975119352340698, -0.3707811236381531, 0.9103018045425415, -1.097338080406189, 0.22120004892349243, -0.7952553033828735, 0.3245488107204437, 1.2448173761367798, 0.5644374489784241, -0.22838422656059265, -0.9388591051101685, 1.5345600843429565, -1.941157341003418, -1.8314732313156128, -1.102532148361206, -0.7027873396873474, 1.3421571254730225, 1.565871000289917, 0.7902437448501587, 0.7077440023422241, 0.162846177816391, -0.792906641960144, 0.281635046005249, -0.18962247669696808, -0.23298731446266174, -1.9959717988967896, -0.726330578327179, -1.100653886795044], [-1.1062805652618408, 1.2321213483810425, 0.593694269657135, -0.9896045923233032, -0.5487502813339233, -0.47552257776260376, -0.274425208568573, -0.25956282019615173, 0.1934705376625061, -0.3767147660255432, -1.5131821632385254, -0.016502104699611664, 0.3488062918186188, 0.339265912771225, 1.656661033630371, 0.033949919044971466, 0.9716627597808838, 0.16854853928089142, 1.07616126537323, 0.1836995929479599, 0.7497669458389282, -0.6215948462486267, 1.1943734884262085, 0.5334299206733704, -0.8922796249389648, 0.30152732133865356, -0.4977574050426483, -0.9109276533126831, -0.48940345644950867, -0.6015697121620178, 0.620420515537262, -0.8611031770706177, 0.10844656825065613, -1.1560084819793701, 0.45984765887260437, 1.5001345872879028, 0.5632525682449341, 0.6556032299995422, -0.16469620168209076, -1.623652696609497, 0.4421420693397522, -3.0303382873535156, -0.10928769409656525, 1.1849764585494995, -0.4858262538909912, -0.9858327507972717, -0.49853721261024475, 0.42827108502388, 2.3899800777435303, -0.03623779118061066, -0.6540927886962891, -0.049252938479185104, 1.4429931640625, -1.246991753578186, 0.9077231287956238, -0.18533378839492798, -2.031845808029175, -0.8905971646308899, -0.6797946691513062, 1.905218243598938, -0.5273799896240234, -0.7732373476028442, 0.4991915225982666, -1.1963533163070679, -0.5408774018287659, -0.9895254373550415, -0.7615997195243835, 0.37300166487693787, 0.252570778131485, 0.5394119620323181, -0.582469642162323, -1.8021079301834106, 0.1650845855474472, -0.023351280018687248, 0.1680995672941208, -0.39566105604171753, -0.446272075176239, 0.9689622521400452, 0.5251324772834778, 0.24338610470294952, -1.3591192960739136, 1.0322643518447876, 1.2220582962036133, 0.20242255926132202, -0.09104849398136139, -2.004857301712036, -0.21367137134075165, -0.6373957991600037, -0.7377755045890808, 0.2007209062576294, 0.9881751537322998, 1.2047063112258911, -0.6106904745101929, -0.5403620004653931, 1.352935791015625, 0.5826479196548462, 0.8500447869300842, -1.5781749486923218, -0.6098324656486511, 0.978847861289978, 0.5036280155181885, 0.11775243282318115, -1.3758083581924438, 0.4394480586051941, -1.2250560522079468, -0.7449224591255188, -0.991523027420044, -0.4334334135055542, -0.14491687715053558, 0.07566376030445099, -1.0678600072860718, -0.8242278695106506, -0.30654457211494446, 1.2508312463760376, -1.0242724418640137, -0.15030381083488464, -0.33103257417678833, 0.06773312389850616, 0.27540352940559387, -1.458498239517212], [-2.8901262283325195, -0.7654865384101868, -0.8940919041633606, 1.0464900732040405, -0.29950809478759766, -0.006343135144561529, 0.3357981741428375, 0.24251991510391235, 0.7641209363937378, 0.2825554311275482, -0.5000227689743042, 0.3148391842842102, 0.4671533405780792, -2.3991663455963135, -0.606715202331543, -1.2509634494781494, -1.098913550376892, 0.39382287859916687, 0.06855086982250214, -1.0862624645233154, 1.2085373401641846, 0.5032031536102295, 1.0084503889083862, 0.14184917509555817, -0.9382716417312622, 1.1024445295333862, -0.8661088943481445, 0.026063987985253334, 0.748076856136322, -0.4633296728134155, -0.21675392985343933, -0.9024943113327026, 0.844842791557312, -0.788372814655304, -0.9365418553352356, 0.12333933264017105, 1.7382159233093262, 0.4967518448829651, -1.3266894817352295, -2.0005338191986084, 0.5554879903793335, 2.1075732707977295, -0.506315290927887, -1.6617730855941772, 0.19228461384773254, -0.36012643575668335, -0.43238088488578796, 1.2397714853286743, -0.14960698783397675, 0.1383337527513504, 0.3112891614437103, -0.4864545464515686, -0.35054129362106323, -0.1136336401104927, 1.1327838897705078, 0.5574464797973633, 0.46186161041259766, -0.7346605658531189, 0.20943404734134674, 0.3359033167362213, 0.4387945830821991, -0.7700808644294739, 0.20087619125843048, 0.5224738121032715, -1.440717101097107, 1.2070987224578857, -2.544240951538086, 1.4230951070785522, 1.0064274072647095, 1.8160185813903809, -0.11185436695814133, -0.5594867467880249, 0.025752011686563492, 1.9693092107772827, -0.39670372009277344, -2.325688362121582, 1.5701115131378174, -0.4110499918460846, 1.6037747859954834, -1.0567110776901245, 1.0130199193954468, 1.1718474626541138, 0.36498504877090454, 0.5786176919937134, -0.27920421957969666, -0.7959327101707458, 1.143123984336853, -0.33542877435684204, 0.3995508551597595, -1.2665064334869385, -0.9037377834320068, -0.1116347387433052, 1.0121679306030273, 1.3088877201080322, 1.1478115320205688, -1.7646013498306274, 1.6669977903366089, -1.1591761112213135, -0.8648733496665955, -0.5237736105918884, -0.7523232102394104, -0.22781075537204742, 0.2852892577648163, 0.43918153643608093, -2.539853572845459, 1.6221659183502197, -0.6993439197540283, 0.5202039480209351, 0.020538754761219025, -1.165711760520935, 1.37417471408844, 1.3624576330184937, -0.42033907771110535, 0.9130426645278931, -0.4361792802810669, -0.16630080342292786, 0.3309212923049927, -1.5619639158248901, -0.003376774024218321, -1.7855943441390991], [0.5821028351783752, 0.22267159819602966, -0.5509758591651917, 0.46272411942481995, 0.30414238572120667, 0.4465205669403076, -0.5932549834251404, -0.9834206700325012, 0.7181124091148376, 0.9217861890792847, 0.7752721905708313, -0.17604367434978485, 1.0854756832122803, 0.23718664050102234, 1.1530683040618896, -1.2826762199401855, 1.1180986166000366, 0.9225825667381287, -0.07545381784439087, 0.46089330315589905, -0.775996744632721, -0.7323689460754395, -1.6204769611358643, -1.1016466617584229, -1.024647831916809, -1.6419446468353271, 1.3875627517700195, 2.5209221839904785, -0.8310530185699463, 0.9081666469573975, 1.251102089881897, -0.26289084553718567, -1.991904377937317, -0.23581016063690186, -0.02987145073711872, 0.18725690245628357, 1.3629909753799438, -0.44506704807281494, -0.9741011261940002, 1.441149353981018, -0.6255362629890442, -0.3901252746582031, -0.2331671416759491, -1.2474039793014526, 1.6489750146865845, 0.40052807331085205, -0.38467714190483093, 1.566194772720337, 0.12612947821617126, -1.3049417734146118, 0.5612054467201233, 1.8987706899642944, -1.1204636096954346, -1.3823553323745728, -0.7643986344337463, -1.3785401582717896, -1.6486274003982544, -0.7362521886825562, 2.046790599822998, -0.10999545454978943, 1.0199240446090698, 1.0565917491912842, 0.5629352927207947, 0.6256635189056396, -0.14533883333206177, 0.4951658248901367, -0.7195361852645874, -0.2512609660625458, 1.436809778213501, -0.035230591893196106, 0.8050856590270996, 1.6123697757720947, 0.30704808235168457, 0.1565965712070465, 0.43800729513168335, -0.08528193086385727, 1.7622952461242676, -0.968300998210907, -1.9891061782836914, 0.11830692738294601, 0.9232491850852966, -0.3638610243797302, -1.125131607055664, 0.06448650360107422, -2.6843488216400146, 0.5356334447860718, 0.5801221132278442, -0.41152095794677734, 1.5276869535446167, 0.24266129732131958, -0.27355578541755676, -0.09552210569381714, -0.7188019752502441, -1.1360219717025757, -0.8889505863189697, -1.265699028968811, -0.17435958981513977, 2.5538735389709473, 0.8001350164413452, -0.29445919394493103, 0.5459367036819458, -0.19074037671089172, -0.13078153133392334, 0.15524820983409882, -0.34880441427230835, -0.5490550994873047, 0.1831008344888687, -0.5115218758583069, 1.1992366313934326, 0.07875344902276993, -0.25071433186531067, 0.009612294845283031, -1.2779338359832764, 0.04149222373962402, -1.3275282382965088, 1.4648170471191406, 0.8108305931091309, 0.7583054304122925, -1.5239773988723755, -0.014285825192928314], [-0.30113670229911804, -1.3710296154022217, 1.143359899520874, 1.705128788948059, -1.1446765661239624, 0.48021507263183594, 0.09754256159067154, 1.5461994409561157, 1.2565522193908691, -2.044832944869995, -1.2732551097869873, 1.3879226446151733, -1.4092243909835815, 0.8031288981437683, 0.14759942889213562, 0.4365893006324768, -0.20488496124744415, -0.0061053079552948475, 0.3192688822746277, 0.6143401861190796, -0.3102249503135681, 0.6755635142326355, 0.27704229950904846, 0.17193245887756348, -0.33048105239868164, -0.23809735476970673, 0.5755059123039246, -1.150118350982666, -0.5279905200004578, 1.3421783447265625, 0.2257079929113388, 1.4406262636184692, -0.424006849527359, 2.0023603439331055, 2.0362050533294678, -0.5406748056411743, 1.3920977115631104, -1.00490403175354, 0.9010345339775085, 0.522761344909668, 0.1869913637638092, -0.282261461019516, -1.2476277351379395, -0.8032190203666687, -1.43594491481781, -1.1184922456741333, -0.04580771178007126, 0.9205223917961121, 0.11816366016864777, 0.6631571650505066, 0.7601103186607361, -0.548186719417572, -1.763615369796753, 0.11396808922290802, 0.1678456813097, 0.08714772760868073, 0.0975826308131218, 0.018301870673894882, 2.233642339706421, -1.5893014669418335, 0.6500499248504639, 0.35863184928894043, 1.1308578252792358, -0.1689709722995758, 1.339807391166687, -0.9760745763778687, -1.080443024635315, -0.48789820075035095, -0.37295371294021606, 1.1411362886428833, 1.2560856342315674, -0.08159031718969345, 0.3206532299518585, -0.12274126708507538, -0.8373202085494995, -0.00017964672588277608, -1.5767159461975098, 0.5436034798622131, 0.951775312423706, -0.4165310859680176, -1.0136798620224, -0.4825393259525299, -0.3412458598613739, 0.1322026550769806, 0.5448451042175293, 0.49258214235305786, -1.3311978578567505, -0.03819379583001137, -0.04245098680257797, -0.5161193609237671, 1.2743377685546875, 0.41151881217956543, -2.294456720352173, -0.2504940330982208, 0.893734335899353, -0.7115378975868225, 0.23873992264270782, -0.7422752976417542, -1.2460212707519531, -0.8068459630012512, 1.0749421119689941, 1.012267827987671, -0.2055288702249527, 1.379197120666504, -1.4342706203460693, 1.0153136253356934, -3.2381889820098877, -0.3782264292240143, 0.001624586759135127, 0.01866030879318714, 0.5073809027671814, 0.6081927418708801, 1.539527177810669, 0.8585158586502075, -0.9720918536186218, -0.6885666847229004, 0.33633196353912354, -1.5398170948028564, -0.2529936134815216, 0.5625014901161194], [-1.263948678970337, 0.7044610381126404, -0.2647077739238739, 1.5511903762817383, -0.8181968927383423, -0.11014975607395172, 0.31740471720695496, 0.8438094854354858, -0.4931066036224365, -0.15703539550304413, -1.920950174331665, -0.0023766926024109125, -1.4263954162597656, 0.6461978554725647, 2.153566598892212, 1.3217976093292236, 1.7030030488967896, -0.5444222092628479, 0.6610561609268188, 1.0460222959518433, 0.003950678743422031, 1.2465707063674927, 0.7751632332801819, -0.7260958552360535, -0.14197438955307007, 1.1981536149978638, -0.20980797708034515, -0.632575511932373, -0.9239276051521301, -0.2608111500740051, 0.5151870846748352, -0.08867275714874268, -0.49325016140937805, -1.4261653423309326, -0.030072543770074844, 1.9925075769424438, 0.8159019351005554, 0.22107157111167908, 0.11549551784992218, 0.4411589205265045, 0.26224708557128906, 1.3019282817840576, -0.4755624532699585, 0.6777447462081909, -0.09312240034341812, 1.9257572889328003, 0.9138498902320862, 0.8260331153869629, 1.613541841506958, -1.305350422859192, -2.0949063301086426, 0.5600103139877319, -1.2822399139404297, 2.893279790878296, 0.27347686886787415, -1.589320182800293, 2.765862464904785, -0.24308441579341888, -0.3546464145183563, 0.8884169459342957, 0.780250608921051, -0.7694159746170044, 1.0988889932632446, -0.6394152045249939, -1.874436855316162, -2.018766164779663, -0.7618107795715332, -0.8687722682952881, 1.5029644966125488, 0.8346576690673828, -0.41185876727104187, 1.411929965019226, 0.3607809543609619, 0.3678419291973114, 2.024188995361328, -1.4894416332244873, -0.10649483650922775, 0.8710957765579224, 0.5194426774978638, -1.3965063095092773, 1.691202163696289, 0.6945624351501465, 0.15602818131446838, -0.15064798295497894, -0.6181509494781494, -1.738818883895874, 0.3094804286956787, -1.189037799835205, 0.036197125911712646, 0.42262008786201477, -0.10726838558912277, 2.0617456436157227, -0.8409285545349121, -0.9153580665588379, -0.021326540037989616, -0.6859361529350281, -1.921082854270935, -0.6486471891403198, 